<?xml version="1.0"?>
<opencv_storage>
<cascade>
  <stageType>BOOST</stageType>
  <featureType>HAAR</featureType>
  <height>24</height>
  <width>24</width>
  <stageParams>
    <boostType>GAB</boostType>
    <minHitRate>9.9500000476837158e-01</minHitRate>
    <maxFalseAlarm>5.0000000000000000e-01</maxFalseAlarm>
    <weightTrimRate>9.4999998807907104e-01</weightTrimRate>
    <maxDepth>1</maxDepth>
    <maxWeakCount>100</maxWeakCount></stageParams>
  <featureParams>
    <maxCatCount>0</maxCatCount>
    <featSize>1</featSize>
    <mode>BASIC</mode></featureParams>
  <stageNum>20</stageNum>
  <stages>
    <!-- stage 0 -->
    <_>
      <maxWeakCount>6</maxWeakCount>
      <stageThreshold>-1.4263828992843628e+00</stageThreshold>
      <weakClassifiers>
        <_>
          <internalNodes>
            0 -1 64 5.1609344780445099e-02</internalNodes>
          <leafValues>
            -7.6502239704132080e-01 5.7894736528396606e-01</leafValues></_>
        <_>
          <internalNodes>
            0 -1 149 1.1050669709220529e-03</internalNodes>
          <leafValues>
            -7.2878634929656982e-01 2.7101105451583862e-01</leafValues></_>
        <_>
          <internalNodes>
            0 -1 33 6.8476716987788677e-03</internalNodes>
          <leafValues>
            2.0068165659904480e-01 -7.9870837926864624e-01</leafValues></_>
        <_>
          <internalNodes>
            0 -1 117 6.1777727678418159e-03</internalNodes>
          <leafValues>
            -4.1141363978385925e-01 4.5011800527572632e-01</leafValues></_>
        <_>
          <internalNodes>
            0 -1 75 -4.9301490187644958e-02</internalNodes>
          <leafValues>
            6.2517142295837402e-01 -3.1961813569068909e-01</leafValues></_>
        <_>
          <internalNodes>
            0 -1 9 -5.5655281990766525e-02</internalNodes>
          <leafValues>
            7.4885374307632446e-01 -2.6375570893287659e-01</leafValues></_></weakClassifiers></_>
    <!-- stage 1 -->
    <_>
      <maxWeakCount>7</maxWeakCount>
      <stageThreshold>-1.7117570638656616e+00</stageThreshold>
      <weakClassifiers>
        <_>
          <internalNodes>
            0 -1 159 -2.3881800472736359e-02</internalNodes>
          <leafValues>
            3.7500000000000000e-01 -7.8869324922561646e-01</leafValues></_>
        <_>
          <internalNodes>
            0 -1 198 -4.7273728996515274e-03</internalNodes>
          <leafValues>
            5.1870471239089966e-01 -4.7114700078964233e-01</leafValues></_>
        <_>
          <internalNodes>
            0 -1 12 -1.7185512930154800e-02</internalNodes>
          <leafValues>
            5.2796494960784912e-01 -3.7193325161933899e-01</leafValues></_>
        <_>
          <internalNodes>
            0 -1 154 5.0929784774780273e-03</internalNodes>
          <leafValues>
            -4.1943943500518799e-01 4.8272249102592468e-01</leafValues></_>
        <_>
          <internalNodes>
            0 -1 127 -2.6879679411649704e-02</internalNodes>
          <leafValues>
            5.7872205972671509e-01 -2.7297025918960571e-01</leafValues></_>
        <_>
          <internalNodes>
            0 -1 10 -1.1616876348853111e-02</internalNodes>
          <leafValues>
            5.6489503383636475e-01 -3.3091983199119568e-01</leafValues></_>
        <_>
          <internalNodes>
            0 -1 200 6.7944900365546346e-04</internalNodes>
          <leafValues>
            2.0007264614105225e-01 -8.5871416330337524e-01</leafValues></_></weakClassifiers></_>
    <!-- stage 2 -->
    <_>
      <maxWeakCount>5</maxWeakCount>
      <stageThreshold>-1.7315218448638916e+00</stageThreshold>
      <weakClassifiers>
        <_>
          <internalNodes>
            0 -1 17 5.3974103182554245e-02</internalNodes>
          <leafValues>
            -7.5583481788635254e-01 4.2857143282890320e-01</leafValues></_>
        <_>
          <internalNodes>
            0 -1 155 8.5816681385040283e-03</internalNodes>
          <leafValues>
            -7.2694408893585205e-01 3.3050605654716492e-01</leafValues></_>
        <_>
          <internalNodes>
            0 -1 122 1.3437021152640227e-05</internalNodes>
          <leafValues>
            -5.1595103740692139e-01 4.3811824917793274e-01</leafValues></_>
        <_>
          <internalNodes>
            0 -1 211 1.2842007890867535e-05</internalNodes>
          <leafValues>
            -4.2499190568923950e-01 4.7711756825447083e-01</leafValues></_>
        <_>
          <internalNodes>
            0 -1 74 1.1281738807156216e-05</internalNodes>
          <leafValues>
            -3.6525011062622070e-01 4.5873954892158508e-01</leafValues></_></weakClassifiers></_>
    <!-- stage 3 -->
    <_>
      <maxWeakCount>7</maxWeakCount>
      <stageThreshold>-1.5301746129989624e+00</stageThreshold>
      <weakClassifiers>
        <_>
          <internalNodes>
            0 -1 69 1.3284241504152305e-05</internalNodes>
          <leafValues>
            -8.4070795774459839e-01 -1.7073170840740204e-01</leafValues></_>
        <_>
          <internalNodes>
            0 -1 137 1.0756897609098814e-05</internalNodes>
          <leafValues>
            -5.8977597951889038e-01 3.4102666378021240e-01</leafValues></_>
        <_>
          <internalNodes>
            0 -1 204 1.2886189324490260e-05</internalNodes>
          <leafValues>
            -4.7075042128562927e-01 4.4138076901435852e-01</leafValues></_>
        <_>
          <internalNodes>
            0 -1 126 1.3263160326459911e-05</internalNodes>
          <leafValues>
            -3.7330076098442078e-01 5.0170707702636719e-01</leafValues></_>
        <_>
          <internalNodes>
            0 -1 215 -2.6101996190845966e-03</internalNodes>
          <leafValues>
            -6.9590622186660767e-01 2.6041555404663086e-01</leafValues></_>
        <_>
          <internalNodes>
            0 -1 47 2.0482379198074341e-01</internalNodes>
          <leafValues>
            2.2408051788806915e-01 -8.3079969882965088e-01</leafValues></_>
        <_>
          <internalNodes>
            0 -1 167 1.2467478882172145e-05</internalNodes>
          <leafValues>
            -3.6672499775886536e-01 4.2813250422477722e-01</leafValues></_></weakClassifiers></_>
    <!-- stage 4 -->
    <_>
      <maxWeakCount>7</maxWeakCount>
      <stageThreshold>-1.7506203651428223e+00</stageThreshold>
      <weakClassifiers>
        <_>
          <internalNodes>
            0 -1 71 2.8740280866622925e-01</internalNodes>
          <leafValues>
            -7.2695654630661011e-01 6.5853661298751831e-01</leafValues></_>
        <_>
          <internalNodes>
            0 -1 105 2.6627790066413581e-04</internalNodes>
          <leafValues>
            2.8357116505503654e-02 -8.5833770036697388e-01</leafValues></_>
        <_>
          <internalNodes>
            0 -1 106 -6.1195215675979853e-04</internalNodes>
          <leafValues>
            -8.6664426326751709e-01 1.5662293136119843e-01</leafValues></_>
        <_>
          <internalNodes>
            0 -1 212 -2.6159349363297224e-03</internalNodes>
          <leafValues>
            -7.0808863639831543e-01 1.6557958722114563e-01</leafValues></_>
        <_>
          <internalNodes>
            0 -1 182 -1.4791432768106461e-02</internalNodes>
          <leafValues>
            4.9679315090179443e-01 -2.7406781911849976e-01</leafValues></_>
        <_>
          <internalNodes>
            0 -1 107 3.1927865347824991e-04</internalNodes>
          <leafValues>
            2.1988615393638611e-01 -7.8077876567840576e-01</leafValues></_>
        <_>
          <internalNodes>
            0 -1 92 7.5125414878129959e-03</internalNodes>
          <leafValues>
            -4.4637358188629150e-01 3.3230850100517273e-01</leafValues></_></weakClassifiers></_>
    <!-- stage 5 -->
    <_>
      <maxWeakCount>8</maxWeakCount>
      <stageThreshold>-1.4066157341003418e+00</stageThreshold>
      <weakClassifiers>
        <_>
          <internalNodes>
            0 -1 55 -2.2908473387360573e-02</internalNodes>
          <leafValues>
            2.8358209133148193e-01 -7.3665481805801392e-01</leafValues></_>
        <_>
          <internalNodes>
            0 -1 116 6.3466141000390053e-04</internalNodes>
          <leafValues>
            -2.5554226711392403e-02 -9.4889593124389648e-01</leafValues></_>
        <_>
          <internalNodes>
            0 -1 161 -1.1558162048459053e-02</internalNodes>
          <leafValues>
            4.5824548602104187e-01 -3.1182044744491577e-01</leafValues></_>
        <_>
          <internalNodes>
            0 -1 144 -9.4447447918355465e-04</internalNodes>
          <leafValues>
            -7.9535859823226929e-01 2.1705420315265656e-01</leafValues></_>
        <_>
          <internalNodes>
            0 -1 144 7.0064887404441833e-04</internalNodes>
          <leafValues>
            1.7748983204364777e-01 -6.7540121078491211e-01</leafValues></_>
        <_>
          <internalNodes>
            0 -1 23 -9.5496289432048798e-03</internalNodes>
          <leafValues>
            3.7348112463951111e-01 -3.8635677099227905e-01</leafValues></_>
        <_>
          <internalNodes>
            0 -1 216 4.0091399569064379e-04</internalNodes>
          <leafValues>
            1.8834440410137177e-01 -7.2861182689666748e-01</leafValues></_>
        <_>
          <internalNodes>
            0 -1 104 -1.1523272842168808e-02</internalNodes>
          <leafValues>
            4.6415731310844421e-01 -2.7654308080673218e-01</leafValues></_></weakClassifiers></_>
    <!-- stage 6 -->
    <_>
      <maxWeakCount>10</maxWeakCount>
      <stageThreshold>-1.4080055952072144e+00</stageThreshold>
      <weakClassifiers>
        <_>
          <internalNodes>
            0 -1 57 -1.0251463949680328e-01</internalNodes>
          <leafValues>
            -8.4033617749810219e-03 -7.5373136997222900e-01</leafValues></_>
        <_>
          <internalNodes>
            0 -1 94 1.2720387894660234e-04</internalNodes>
          <leafValues>
            1.8179573118686676e-02 -7.3966819047927856e-01</leafValues></_>
        <_>
          <internalNodes>
            0 -1 131 4.1521294042468071e-04</internalNodes>
          <leafValues>
            1.0193087160587311e-01 -8.7334769964218140e-01</leafValues></_>
        <_>
          <internalNodes>
            0 -1 187 1.4315547014120966e-04</internalNodes>
          <leafValues>
            1.6154719889163971e-01 -6.4588671922683716e-01</leafValues></_>
        <_>
          <internalNodes>
            0 -1 97 -2.7119603008031845e-02</internalNodes>
          <leafValues>
            5.7920342683792114e-01 -1.8885038793087006e-01</leafValues></_>
        <_>
          <internalNodes>
            0 -1 134 6.8085575476288795e-03</internalNodes>
          <leafValues>
            -2.9930672049522400e-01 4.0755295753479004e-01</leafValues></_>
        <_>
          <internalNodes>
            0 -1 123 2.1086141350679100e-04</internalNodes>
          <leafValues>
            1.7569008469581604e-01 -6.9406157732009888e-01</leafValues></_>
        <_>
          <internalNodes>
            0 -1 22 -1.7881898209452629e-02</internalNodes>
          <leafValues>
            5.0896567106246948e-01 -2.5714337825775146e-01</leafValues></_>
        <_>
          <internalNodes>
            0 -1 139 3.0611711554229259e-04</internalNodes>
          <leafValues>
            1.4420364797115326e-01 -8.6743694543838501e-01</leafValues></_>
        <_>
          <internalNodes>
            0 -1 177 1.3267299160361290e-02</internalNodes>
          <leafValues>
            -3.3424603939056396e-01 3.5922655463218689e-01</leafValues></_></weakClassifiers></_>
    <!-- stage 7 -->
    <_>
      <maxWeakCount>12</maxWeakCount>
      <stageThreshold>-1.8628932237625122e+00</stageThreshold>
      <weakClassifiers>
        <_>
          <internalNodes>
            0 -1 158 -2.6549778878688812e-02</internalNodes>
          <leafValues>
            1.7241379618644714e-01 -7.4637681245803833e-01</leafValues></_>
        <_>
          <internalNodes>
            0 -1 171 2.4723045062273741e-03</internalNodes>
          <leafValues>
            -5.4023957252502441e-01 9.7502708435058594e-02</leafValues></_>
        <_>
          <internalNodes>
            0 -1 195 -1.9895954756066203e-04</internalNodes>
          <leafValues>
            -6.4937973022460938e-01 1.5068949759006500e-01</leafValues></_>
        <_>
          <internalNodes>
            0 -1 214 -1.0509483981877565e-03</internalNodes>
          <leafValues>
            -6.2091010808944702e-01 2.0396775007247925e-01</leafValues></_>
        <_>
          <internalNodes>
            0 -1 139 -2.6832043658941984e-04</internalNodes>
          <leafValues>
            -6.9711387157440186e-01 1.2911987304687500e-01</leafValues></_>
        <_>
          <internalNodes>
            0 -1 132 -8.7843891233205795e-03</internalNodes>
          <leafValues>
            5.3031998872756958e-01 -2.0151427388191223e-01</leafValues></_>
        <_>
          <internalNodes>
            0 -1 11 -1.0711695998907089e-02</internalNodes>
          <leafValues>
            4.8740139603614807e-01 -2.4320463836193085e-01</leafValues></_>
        <_>
          <internalNodes>
            0 -1 4 -5.0114281475543976e-04</internalNodes>
          <leafValues>
            -7.9226583242416382e-01 1.2955650687217712e-01</leafValues></_>
        <_>
          <internalNodes>
            0 -1 108 2.2531885653734207e-02</internalNodes>
          <leafValues>
            -2.3397628962993622e-01 4.6146500110626221e-01</leafValues></_>
        <_>
          <internalNodes>
            0 -1 128 -7.2849248535931110e-03</internalNodes>
          <leafValues>
            4.6379888057708740e-01 -2.1346993744373322e-01</leafValues></_>
        <_>
          <internalNodes>
            0 -1 18 -1.1748457327485085e-03</internalNodes>
          <leafValues>
            -6.4629077911376953e-01 1.6198593378067017e-01</leafValues></_>
        <_>
          <internalNodes>
            0 -1 48 -1.9164513796567917e-02</internalNodes>
          <leafValues>
            2.5530502200126648e-01 -3.8996809720993042e-01</leafValues></_></weakClassifiers></_>
    <!-- stage 8 -->
    <_>
      <maxWeakCount>12</maxWeakCount>
      <stageThreshold>-1.6465387344360352e+00</stageThreshold>
      <weakClassifiers>
        <_>
          <internalNodes>
            0 -1 102 -1.8130559474229813e-02</internalNodes>
          <leafValues>
            -7.9365082085132599e-02 -7.5023472309112549e-01</leafValues></_>
        <_>
          <internalNodes>
            0 -1 146 -1.0891088843345642e-01</internalNodes>
          <leafValues>
            1.2597487866878510e-01 -4.8486402630805969e-01</leafValues></_>
        <_>
          <internalNodes>
            0 -1 80 7.8120827674865723e-03</internalNodes>
          <leafValues>
            1.1824560165405273e-01 -7.0519089698791504e-01</leafValues></_>
        <_>
          <internalNodes>
            0 -1 51 -7.0323992986232042e-04</internalNodes>
          <leafValues>
            -9.1245365142822266e-01 1.0561870038509369e-01</leafValues></_>
        <_>
          <internalNodes>
            0 -1 73 6.8326387554407120e-04</internalNodes>
          <leafValues>
            -2.5914567708969116e-01 3.6195164918899536e-01</leafValues></_>
        <_>
          <internalNodes>
            0 -1 178 -1.3336590491235256e-03</internalNodes>
          <leafValues>
            -7.1990483999252319e-01 1.2590628862380981e-01</leafValues></_>
        <_>
          <internalNodes>
            0 -1 115 -2.2328859195113182e-03</internalNodes>
          <leafValues>
            3.8244289159774780e-01 -2.4265092611312866e-01</leafValues></_>
        <_>
          <internalNodes>
            0 -1 103 3.3549489453434944e-03</internalNodes>
          <leafValues>
            -2.2812882065773010e-01 4.1908237338066101e-01</leafValues></_>
        <_>
          <internalNodes>
            0 -1 78 -8.1851873546838760e-03</internalNodes>
          <leafValues>
            5.2865278720855713e-01 -2.1632711589336395e-01</leafValues></_>
        <_>
          <internalNodes>
            0 -1 191 3.7716206861659884e-04</internalNodes>
          <leafValues>
            -2.3742201924324036e-01 4.0705507993698120e-01</leafValues></_>
        <_>
          <internalNodes>
            0 -1 185 3.4328139736317098e-04</internalNodes>
          <leafValues>
            1.1344154179096222e-01 -7.7311074733734131e-01</leafValues></_>
        <_>
          <internalNodes>
            0 -1 173 4.0671689930604771e-05</internalNodes>
          <leafValues>
            1.9309228658676147e-01 -4.3595743179321289e-01</leafValues></_></weakClassifiers></_>
    <!-- stage 9 -->
    <_>
      <maxWeakCount>9</maxWeakCount>
      <stageThreshold>-1.4749871492385864e+00</stageThreshold>
      <weakClassifiers>
        <_>
          <internalNodes>
            0 -1 15 1.2693584896624088e-02</internalNodes>
          <leafValues>
            -7.2872340679168701e-01 2.0634920895099640e-01</leafValues></_>
        <_>
          <internalNodes>
            0 -1 184 8.5069164633750916e-03</internalNodes>
          <leafValues>
            -5.3313457965850830e-01 1.6078147292137146e-01</leafValues></_>
        <_>
          <internalNodes>
            0 -1 118 -3.3707716502249241e-03</internalNodes>
          <leafValues>
            2.9332986474037170e-01 -3.6161229014396667e-01</leafValues></_>
        <_>
          <internalNodes>
            0 -1 194 3.8590384065173566e-05</internalNodes>
          <leafValues>
            2.0841582119464874e-01 -4.7128194570541382e-01</leafValues></_>
        <_>
          <internalNodes>
            0 -1 56 -8.9523699134588242e-03</internalNodes>
          <leafValues>
            3.9603048563003540e-01 -2.6538917422294617e-01</leafValues></_>
        <_>
          <internalNodes>
            0 -1 19 -2.3257452994585037e-03</internalNodes>
          <leafValues>
            -7.9239988327026367e-01 1.5159010887145996e-01</leafValues></_>
        <_>
          <internalNodes>
            0 -1 209 7.3078274726867676e-03</internalNodes>
          <leafValues>
            1.0448233038187027e-01 -7.0572739839553833e-01</leafValues></_>
        <_>
          <internalNodes>
            0 -1 138 1.9921059720218182e-04</internalNodes>
          <leafValues>
            -3.4549936652183533e-01 2.5906804203987122e-01</leafValues></_>
        <_>
          <internalNodes>
            0 -1 87 -5.5553819984197617e-02</internalNodes>
          <leafValues>
            6.2970584630966187e-01 -1.6089394688606262e-01</leafValues></_></weakClassifiers></_>
    <!-- stage 10 -->
    <_>
      <maxWeakCount>12</maxWeakCount>
      <stageThreshold>-1.5996172428131104e+00</stageThreshold>
      <weakClassifiers>
        <_>
          <internalNodes>
            0 -1 6 8.2927495241165161e-02</internalNodes>
          <leafValues>
            -7.2449868917465210e-01 5.0000000000000000e-01</leafValues></_>
        <_>
          <internalNodes>
            0 -1 50 -2.5142966769635677e-03</internalNodes>
          <leafValues>
            1.7444264888763428e-01 -4.1091963648796082e-01</leafValues></_>
        <_>
          <internalNodes>
            0 -1 34 -2.0100735127925873e-04</internalNodes>
          <leafValues>
            -7.4667036533355713e-01 1.3125048577785492e-01</leafValues></_>
        <_>
          <internalNodes>
            0 -1 121 -3.7574199959635735e-03</internalNodes>
          <leafValues>
            4.0660190582275391e-01 -2.2413754463195801e-01</leafValues></_>
        <_>
          <internalNodes>
            0 -1 186 2.6065970305353403e-03</internalNodes>
          <leafValues>
            1.0632814466953278e-01 -8.9215564727783203e-01</leafValues></_>
        <_>
          <internalNodes>
            0 -1 152 5.2615348249673843e-03</internalNodes>
          <leafValues>
            -3.0216202139854431e-01 3.0597177147865295e-01</leafValues></_>
        <_>
          <internalNodes>
            0 -1 62 -7.1994420140981674e-03</internalNodes>
          <leafValues>
            2.4055451154708862e-01 -3.7095591425895691e-01</leafValues></_>
        <_>
          <internalNodes>
            0 -1 189 -6.3886400312185287e-03</internalNodes>
          <leafValues>
            4.3327057361602783e-01 -2.1552968025207520e-01</leafValues></_>
        <_>
          <internalNodes>
            0 -1 199 -1.7468124860897660e-03</internalNodes>
          <leafValues>
            3.3115881681442261e-01 -3.0092820525169373e-01</leafValues></_>
        <_>
          <internalNodes>
            0 -1 45 -4.0614866884425282e-04</internalNodes>
          <leafValues>
            -7.2325843572616577e-01 1.3113291561603546e-01</leafValues></_>
        <_>
          <internalNodes>
            0 -1 25 -1.2095334008336067e-02</internalNodes>
          <leafValues>
            7.2359776496887207e-01 -1.3865989446640015e-01</leafValues></_>
        <_>
          <internalNodes>
            0 -1 45 6.3514034263789654e-04</internalNodes>
          <leafValues>
            1.1132905632257462e-01 -9.0309619903564453e-01</leafValues></_></weakClassifiers></_>
    <!-- stage 11 -->
    <_>
      <maxWeakCount>13</maxWeakCount>
      <stageThreshold>-1.6191589832305908e+00</stageThreshold>
      <weakClassifiers>
        <_>
          <internalNodes>
            0 -1 163 -5.8165872469544411e-03</internalNodes>
          <leafValues>
            -2.3157894611358643e-01 -7.6423573493957520e-01</leafValues></_>
        <_>
          <internalNodes>
            0 -1 28 -1.2908745557069778e-03</internalNodes>
          <leafValues>
            1.2501469254493713e-01 -4.7494286298751831e-01</leafValues></_>
        <_>
          <internalNodes>
            0 -1 109 6.6162962466478348e-03</internalNodes>
          <leafValues>
            -1.6480308771133423e-01 4.8914417624473572e-01</leafValues></_>
        <_>
          <internalNodes>
            0 -1 98 -8.1348270177841187e-03</internalNodes>
          <leafValues>
            5.0561451911926270e-01 -1.8166972696781158e-01</leafValues></_>
        <_>
          <internalNodes>
            0 -1 206 1.6873120330274105e-04</internalNodes>
          <leafValues>
            1.5146550536155701e-01 -5.9526723623275757e-01</leafValues></_>
        <_>
          <internalNodes>
            0 -1 90 2.1495891269296408e-04</internalNodes>
          <leafValues>
            -1.9114542007446289e-01 3.9484432339668274e-01</leafValues></_>
        <_>
          <internalNodes>
            0 -1 40 3.9948914200067520e-03</internalNodes>
          <leafValues>
            -1.4193505048751831e-01 5.5449253320693970e-01</leafValues></_>
        <_>
          <internalNodes>
            0 -1 27 -5.3735787514597178e-04</internalNodes>
          <leafValues>
            -7.4892729520797729e-01 1.3007429242134094e-01</leafValues></_>
        <_>
          <internalNodes>
            0 -1 21 4.8073716461658478e-03</internalNodes>
          <leafValues>
            1.3507671654224396e-01 -6.6497564315795898e-01</leafValues></_>
        <_>
          <internalNodes>
            0 -1 198 -3.9318283088505268e-03</internalNodes>
          <leafValues>
            3.6514750123023987e-01 -2.4911633133888245e-01</leafValues></_>
        <_>
          <internalNodes>
            0 -1 113 -1.1431918246671557e-03</internalNodes>
          <leafValues>
            5.3274762630462646e-01 -1.6741320490837097e-01</leafValues></_>
        <_>
          <internalNodes>
            0 -1 179 1.6472925199195743e-04</internalNodes>
          <leafValues>
            2.0769488811492920e-01 -4.1106244921684265e-01</leafValues></_>
        <_>
          <internalNodes>
            0 -1 162 -2.8528952971100807e-03</internalNodes>
          <leafValues>
            3.6046561598777771e-01 -2.5875979661941528e-01</leafValues></_></weakClassifiers></_>
    <!-- stage 12 -->
    <_>
      <maxWeakCount>13</maxWeakCount>
      <stageThreshold>-1.5610715150833130e+00</stageThreshold>
      <weakClassifiers>
        <_>
          <internalNodes>
            0 -1 8 3.5591810941696167e-02</internalNodes>
          <leafValues>
            -7.1552473306655884e-01 4.2105263471603394e-01</leafValues></_>
        <_>
          <internalNodes>
            0 -1 37 -2.4009501934051514e-01</internalNodes>
          <leafValues>
            -9.2654001712799072e-01 -8.1971116364002228e-02</leafValues></_>
        <_>
          <internalNodes>
            0 -1 44 -2.2617015056312084e-03</internalNodes>
          <leafValues>
            2.8165808320045471e-01 -3.0572658777236938e-01</leafValues></_>
        <_>
          <internalNodes>
            0 -1 60 7.8345625661313534e-04</internalNodes>
          <leafValues>
            1.2417265772819519e-01 -6.1038231849670410e-01</leafValues></_>
        <_>
          <internalNodes>
            0 -1 1 -1.3568579561251681e-05</internalNodes>
          <leafValues>
            -4.1829428076744080e-01 1.6126726567745209e-01</leafValues></_>
        <_>
          <internalNodes>
            0 -1 32 2.7107191272079945e-04</internalNodes>
          <leafValues>
            1.4862327277660370e-01 -5.2596122026443481e-01</leafValues></_>
        <_>
          <internalNodes>
            0 -1 133 -2.4611738044768572e-03</internalNodes>
          <leafValues>
            4.1106140613555908e-01 -1.8182744085788727e-01</leafValues></_>
        <_>
          <internalNodes>
            0 -1 125 -6.5567325800657272e-03</internalNodes>
          <leafValues>
            4.0142834186553955e-01 -2.3594087362289429e-01</leafValues></_>
        <_>
          <internalNodes>
            0 -1 59 -5.4948602337390184e-04</internalNodes>
          <leafValues>
            -8.9702308177947998e-01 8.8859856128692627e-02</leafValues></_>
        <_>
          <internalNodes>
            0 -1 59 1.1825191177194938e-04</internalNodes>
          <leafValues>
            1.2990647554397583e-01 -5.6000399589538574e-01</leafValues></_>
        <_>
          <internalNodes>
            0 -1 26 -6.1116823926568031e-03</internalNodes>
          <leafValues>
            3.2479977607727051e-01 -2.6953664422035217e-01</leafValues></_>
        <_>
          <internalNodes>
            0 -1 7 8.0393284559249878e-02</internalNodes>
          <leafValues>
            -1.6017366945743561e-01 4.8436337709426880e-01</leafValues></_>
        <_>
          <internalNodes>
            0 -1 13 -8.8109206408262253e-03</internalNodes>
          <leafValues>
            5.0362890958786011e-01 -1.7544904351234436e-01</leafValues></_></weakClassifiers></_>
    <!-- stage 13 -->
    <_>
      <maxWeakCount>16</maxWeakCount>
      <stageThreshold>-1.4230856895446777e+00</stageThreshold>
      <weakClassifiers>
        <_>
          <internalNodes>
            0 -1 112 1.1584040522575378e-01</internalNodes>
          <leafValues>
            -7.1206897497177124e-01 5.4838711023330688e-01</leafValues></_>
        <_>
          <internalNodes>
            0 -1 160 -9.4798244535923004e-03</internalNodes>
          <leafValues>
            2.6101636886596680e-01 -3.5013794898986816e-01</leafValues></_>
        <_>
          <internalNodes>
            0 -1 67 -5.9551931917667389e-03</internalNodes>
          <leafValues>
            2.8545585274696350e-01 -2.7640089392662048e-01</leafValues></_>
        <_>
          <internalNodes>
            0 -1 43 -2.7174805290997028e-03</internalNodes>
          <leafValues>
            2.7973517775535583e-01 -2.5640457868576050e-01</leafValues></_>
        <_>
          <internalNodes>
            0 -1 96 6.7903967574238777e-03</internalNodes>
          <leafValues>
            -1.8678884208202362e-01 4.2935979366302490e-01</leafValues></_>
        <_>
          <internalNodes>
            0 -1 66 -1.1569476919248700e-03</internalNodes>
          <leafValues>
            -8.8305485248565674e-01 7.4553601443767548e-02</leafValues></_>
        <_>
          <internalNodes>
            0 -1 164 4.9179689958691597e-03</internalNodes>
          <leafValues>
            -1.8205708265304565e-01 3.7142789363861084e-01</leafValues></_>
        <_>
          <internalNodes>
            0 -1 86 -8.1833407282829285e-02</internalNodes>
          <leafValues>
            4.5672243833541870e-01 -1.2687224149703979e-01</leafValues></_>
        <_>
          <internalNodes>
            0 -1 190 -4.2423143982887268e-02</internalNodes>
          <leafValues>
            -8.2858210802078247e-01 8.0880455672740936e-02</leafValues></_>
        <_>
          <internalNodes>
            0 -1 14 -1.0763469617813826e-03</internalNodes>
          <leafValues>
            3.0031359195709229e-01 -2.3995201289653778e-01</leafValues></_>
        <_>
          <internalNodes>
            0 -1 130 -6.8087026011198759e-04</internalNodes>
          <leafValues>
            3.1233981251716614e-01 -2.4644696712493896e-01</leafValues></_>
        <_>
          <internalNodes>
            0 -1 174 3.9151178498286754e-05</internalNodes>
          <leafValues>
            2.0489047467708588e-01 -3.4609311819076538e-01</leafValues></_>
        <_>
          <internalNodes>
            0 -1 205 2.2546332911588252e-04</internalNodes>
          <leafValues>
            1.2411352992057800e-01 -5.0773864984512329e-01</leafValues></_>
        <_>
          <internalNodes>
            0 -1 202 -1.8914135871455073e-03</internalNodes>
          <leafValues>
            3.4203317761421204e-01 -2.1275641024112701e-01</leafValues></_>
        <_>
          <internalNodes>
            0 -1 181 5.6628603488206863e-03</internalNodes>
          <leafValues>
            8.7790243327617645e-02 -8.5660666227340698e-01</leafValues></_>
        <_>
          <internalNodes>
            0 -1 153 -3.1142972875386477e-04</internalNodes>
          <leafValues>
            2.6326259970664978e-01 -2.5770002603530884e-01</leafValues></_></weakClassifiers></_>
    <!-- stage 14 -->
    <_>
      <maxWeakCount>12</maxWeakCount>
      <stageThreshold>-1.4567927122116089e+00</stageThreshold>
      <weakClassifiers>
        <_>
          <internalNodes>
            0 -1 166 -9.0672941878437996e-03</internalNodes>
          <leafValues>
            1.2987012974917889e-02 -7.2710949182510376e-01</leafValues></_>
        <_>
          <internalNodes>
            0 -1 58 1.4718680176883936e-03</internalNodes>
          <leafValues>
            -3.8915908336639404e-01 1.1395154148340225e-01</leafValues></_>
        <_>
          <internalNodes>
            0 -1 201 7.7864492777734995e-04</internalNodes>
          <leafValues>
            9.1049820184707642e-02 -7.1243065595626831e-01</leafValues></_>
        <_>
          <internalNodes>
            0 -1 30 3.8151666522026062e-03</internalNodes>
          <leafValues>
            1.2328184396028519e-01 -7.0058089494705200e-01</leafValues></_>
        <_>
          <internalNodes>
            0 -1 156 3.3913641236722469e-03</internalNodes>
          <leafValues>
            -3.7956193089485168e-01 1.6810387372970581e-01</leafValues></_>
        <_>
          <internalNodes>
            0 -1 135 9.4437338411808014e-03</internalNodes>
          <leafValues>
            8.8112384080886841e-02 -8.8191217184066772e-01</leafValues></_>
        <_>
          <internalNodes>
            0 -1 29 -1.3623244129121304e-02</internalNodes>
          <leafValues>
            6.0189080238342285e-01 -1.4033934473991394e-01</leafValues></_>
        <_>
          <internalNodes>
            0 -1 31 -6.1269391153473407e-05</internalNodes>
          <leafValues>
            -3.7647524476051331e-01 1.7624872922897339e-01</leafValues></_>
        <_>
          <internalNodes>
            0 -1 210 -1.8987879157066345e-02</internalNodes>
          <leafValues>
            -8.2683598995208740e-01 6.5524213016033173e-02</leafValues></_>
        <_>
          <internalNodes>
            0 -1 38 2.4587863590568304e-03</internalNodes>
          <leafValues>
            -2.2778396308422089e-01 2.6214343309402466e-01</leafValues></_>
        <_>
          <internalNodes>
            0 -1 5 -1.5646694228053093e-02</internalNodes>
          <leafValues>
            -8.9943635463714600e-01 6.9544315338134766e-02</leafValues></_>
        <_>
          <internalNodes>
            0 -1 183 -4.6265742275863886e-04</internalNodes>
          <leafValues>
            2.9573673009872437e-01 -2.0660021901130676e-01</leafValues></_></weakClassifiers></_>
    <!-- stage 15 -->
    <_>
      <maxWeakCount>14</maxWeakCount>
      <stageThreshold>-1.4913483858108521e+00</stageThreshold>
      <weakClassifiers>
        <_>
          <internalNodes>
            0 -1 180 -8.2425370812416077e-02</internalNodes>
          <leafValues>
            1. -6.9923532009124756e-01</leafValues></_>
        <_>
          <internalNodes>
            0 -1 176 -1.7714546993374825e-04</internalNodes>
          <leafValues>
            7.9534932971000671e-02 -4.6468079090118408e-01</leafValues></_>
        <_>
          <internalNodes>
            0 -1 76 -5.4180650040507317e-03</internalNodes>
          <leafValues>
            3.7766361236572266e-01 -1.8495537340641022e-01</leafValues></_>
        <_>
          <internalNodes>
            0 -1 20 6.9780377671122551e-03</internalNodes>
          <leafValues>
            9.3121774494647980e-02 -8.0894529819488525e-01</leafValues></_>
        <_>
          <internalNodes>
            0 -1 124 -8.1292307004332542e-03</internalNodes>
          <leafValues>
            -6.8127989768981934e-01 1.0849148780107498e-01</leafValues></_>
        <_>
          <internalNodes>
            0 -1 72 -4.4075914775021374e-04</internalNodes>
          <leafValues>
            2.9560431838035583e-01 -2.2726801037788391e-01</leafValues></_>
        <_>
          <internalNodes>
            0 -1 46 4.5552806113846600e-04</internalNodes>
          <leafValues>
            1.3757550716400146e-01 -4.8380100727081299e-01</leafValues></_>
        <_>
          <internalNodes>
            0 -1 147 -7.8744869679212570e-03</internalNodes>
          <leafValues>
            2.6858484745025635e-01 -2.3970924317836761e-01</leafValues></_>
        <_>
          <internalNodes>
            0 -1 16 -1.6435123980045319e-02</internalNodes>
          <leafValues>
            4.4713333249092102e-01 -1.5481986105442047e-01</leafValues></_>
        <_>
          <internalNodes>
            0 -1 95 -1.4194186078384519e-03</internalNodes>
          <leafValues>
            2.6023399829864502e-01 -2.6490625739097595e-01</leafValues></_>
        <_>
          <internalNodes>
            0 -1 145 1.6284087905660272e-03</internalNodes>
          <leafValues>
            1.0755144804716110e-01 -5.6873160600662231e-01</leafValues></_>
        <_>
          <internalNodes>
            0 -1 142 -1.4716232195496559e-02</internalNodes>
          <leafValues>
            4.2451494932174683e-01 -1.6989929974079132e-01</leafValues></_>
        <_>
          <internalNodes>
            0 -1 99 -1.3478234177455306e-03</internalNodes>
          <leafValues>
            2.7109745144844055e-01 -2.7779030799865723e-01</leafValues></_>
        <_>
          <internalNodes>
            0 -1 129 -1.0867467150092125e-02</internalNodes>
          <leafValues>
            5.5482804775238037e-01 -1.2118110805749893e-01</leafValues></_></weakClassifiers></_>
    <!-- stage 16 -->
    <_>
      <maxWeakCount>16</maxWeakCount>
      <stageThreshold>-1.4724780321121216e+00</stageThreshold>
      <weakClassifiers>
        <_>
          <internalNodes>
            0 -1 65 -8.8438063859939575e-02</internalNodes>
          <leafValues>
            7.2727274894714355e-01 -7.0573139190673828e-01</leafValues></_>
        <_>
          <internalNodes>
            0 -1 150 2.8163794195279479e-04</internalNodes>
          <leafValues>
            -4.2380407452583313e-01 9.3034483492374420e-02</leafValues></_>
        <_>
          <internalNodes>
            0 -1 36 -1.4166274922899902e-04</internalNodes>
          <leafValues>
            -4.9343299865722656e-01 1.4262019097805023e-01</leafValues></_>
        <_>
          <internalNodes>
            0 -1 63 -3.7579808849841356e-04</internalNodes>
          <leafValues>
            3.7106698751449585e-01 -1.6075433790683746e-01</leafValues></_>
        <_>
          <internalNodes>
            0 -1 70 2.7194125577807426e-03</internalNodes>
          <leafValues>
            -2.3529292643070221e-01 2.9530179500579834e-01</leafValues></_>
        <_>
          <internalNodes>
            0 -1 148 -8.5472371429204941e-03</internalNodes>
          <leafValues>
            2.2274895012378693e-01 -2.9701957106590271e-01</leafValues></_>
        <_>
          <internalNodes>
            0 -1 84 -1.2134811840951443e-03</internalNodes>
          <leafValues>
            4.3506470322608948e-01 -1.6730242967605591e-01</leafValues></_>
        <_>
          <internalNodes>
            0 -1 143 3.0328956199809909e-04</internalNodes>
          <leafValues>
            1.1003387719392776e-01 -5.6574296951293945e-01</leafValues></_>
        <_>
          <internalNodes>
            0 -1 213 -1.1364326346665621e-03</internalNodes>
          <leafValues>
            -8.9664369821548462e-01 7.8605353832244873e-02</leafValues></_>
        <_>
          <internalNodes>
            0 -1 89 -4.1745686903595924e-03</internalNodes>
          <leafValues>
            4.1414210200309753e-01 -1.7143994569778442e-01</leafValues></_>
        <_>
          <internalNodes>
            0 -1 81 -1.3921725621912628e-04</internalNodes>
          <leafValues>
            -3.7443917989730835e-01 1.5892139077186584e-01</leafValues></_>
        <_>
          <internalNodes>
            0 -1 141 -4.1298335418105125e-03</internalNodes>
          <leafValues>
            -5.7272118330001831e-01 9.7805634140968323e-02</leafValues></_>
        <_>
          <internalNodes>
            0 -1 83 1.3616878539323807e-02</internalNodes>
          <leafValues>
            -2.2717398405075073e-01 2.8001609444618225e-01</leafValues></_>
        <_>
          <internalNodes>
            0 -1 39 -1.5063618775457144e-03</internalNodes>
          <leafValues>
            2.8942278027534485e-01 -2.2176122665405273e-01</leafValues></_>
        <_>
          <internalNodes>
            0 -1 172 5.0494940951466560e-03</internalNodes>
          <leafValues>
            6.8964943289756775e-02 -9.2272740602493286e-01</leafValues></_>
        <_>
          <internalNodes>
            0 -1 196 6.7601460614241660e-05</internalNodes>
          <leafValues>
            1.3561439514160156e-01 -4.4187626242637634e-01</leafValues></_></weakClassifiers></_>
    <!-- stage 17 -->
    <_>
      <maxWeakCount>15</maxWeakCount>
      <stageThreshold>-1.3172980546951294e+00</stageThreshold>
      <weakClassifiers>
        <_>
          <internalNodes>
            0 -1 24 6.9706020876765251e-03</internalNodes>
          <leafValues>
            -7.2605192661285400e-01 2.7027027681469917e-02</leafValues></_>
        <_>
          <internalNodes>
            0 -1 170 1.0897906497120857e-02</internalNodes>
          <leafValues>
            -4.8252907395362854e-01 2.9037807136774063e-02</leafValues></_>
        <_>
          <internalNodes>
            0 -1 3 2.3911957442760468e-01</internalNodes>
          <leafValues>
            -1.4614959061145782e-01 5.4261755943298340e-01</leafValues></_>
        <_>
          <internalNodes>
            0 -1 54 -2.5280311703681946e-02</internalNodes>
          <leafValues>
            1.8670514225959778e-01 -3.5041123628616333e-01</leafValues></_>
        <_>
          <internalNodes>
            0 -1 168 4.7932486049830914e-03</internalNodes>
          <leafValues>
            -1.4083732664585114e-01 3.8012546300888062e-01</leafValues></_>
        <_>
          <internalNodes>
            0 -1 193 -2.0699904416687787e-04</internalNodes>
          <leafValues>
            2.8304523229598999e-01 -2.2127951681613922e-01</leafValues></_>
        <_>
          <internalNodes>
            0 -1 91 1.2392972130328417e-03</internalNodes>
          <leafValues>
            -1.7470702528953552e-01 3.4302288293838501e-01</leafValues></_>
        <_>
          <internalNodes>
            0 -1 88 1.6834892332553864e-02</internalNodes>
          <leafValues>
            -1.3759024441242218e-01 4.8468223214149475e-01</leafValues></_>
        <_>
          <internalNodes>
            0 -1 203 2.1519184112548828e-02</internalNodes>
          <leafValues>
            1.0755421221256256e-01 -6.3046002388000488e-01</leafValues></_>
        <_>
          <internalNodes>
            0 -1 208 4.8302783397957683e-05</internalNodes>
          <leafValues>
            1.6294889152050018e-01 -3.5993424057960510e-01</leafValues></_>
        <_>
          <internalNodes>
            0 -1 79 9.1086956672370434e-04</internalNodes>
          <leafValues>
            -2.7864095568656921e-01 2.2761240601539612e-01</leafValues></_>
        <_>
          <internalNodes>
            0 -1 105 2.0475324708968401e-04</internalNodes>
          <leafValues>
            9.7020074725151062e-02 -6.0037863254547119e-01</leafValues></_>
        <_>
          <internalNodes>
            0 -1 110 1.1158386769238859e-04</internalNodes>
          <leafValues>
            -2.1838140487670898e-01 2.9763698577880859e-01</leafValues></_>
        <_>
          <internalNodes>
            0 -1 41 -6.1152085661888123e-02</internalNodes>
          <leafValues>
            -8.6782813072204590e-01 7.3241703212261200e-02</leafValues></_>
        <_>
          <internalNodes>
            0 -1 192 -4.3688592268154025e-04</internalNodes>
          <leafValues>
            3.2290804386138916e-01 -2.1344047784805298e-01</leafValues></_></weakClassifiers></_>
    <!-- stage 18 -->
    <_>
      <maxWeakCount>12</maxWeakCount>
      <stageThreshold>-1.4217929840087891e+00</stageThreshold>
      <weakClassifiers>
        <_>
          <internalNodes>
            0 -1 114 -1.3300286605954170e-02</internalNodes>
          <leafValues>
            1.6923077404499054e-01 -7.2824156284332275e-01</leafValues></_>
        <_>
          <internalNodes>
            0 -1 2 9.9559947848320007e-03</internalNodes>
          <leafValues>
            -8.3969652652740479e-02 -7.3460781574249268e-01</leafValues></_>
        <_>
          <internalNodes>
            0 -1 0 -4.0508362872060388e-05</internalNodes>
          <leafValues>
            -3.5628566145896912e-01 1.3910503685474396e-01</leafValues></_>
        <_>
          <internalNodes>
            0 -1 68 -1.3921982608735561e-02</internalNodes>
          <leafValues>
            -9.1843670606613159e-01 7.7659986913204193e-02</leafValues></_>
        <_>
          <internalNodes>
            0 -1 100 -1.6646435484290123e-02</internalNodes>
          <leafValues>
            3.8101068139076233e-01 -1.5401247143745422e-01</leafValues></_>
        <_>
          <internalNodes>
            0 -1 165 -8.3183497190475464e-03</internalNodes>
          <leafValues>
            4.0775156021118164e-01 -1.4557109773159027e-01</leafValues></_>
        <_>
          <internalNodes>
            0 -1 77 4.8508984036743641e-04</internalNodes>
          <leafValues>
            -1.7534378170967102e-01 3.2700002193450928e-01</leafValues></_>
        <_>
          <internalNodes>
            0 -1 111 -4.3566655367612839e-03</internalNodes>
          <leafValues>
            3.4423404932022095e-01 -1.8065296113491058e-01</leafValues></_>
        <_>
          <internalNodes>
            0 -1 61 -2.3296698927879333e-03</internalNodes>
          <leafValues>
            3.8713937997817993e-01 -1.4778076112270355e-01</leafValues></_>
        <_>
          <internalNodes>
            0 -1 53 1.1898069642484188e-02</internalNodes>
          <leafValues>
            6.2143173068761826e-02 -9.5388591289520264e-01</leafValues></_>
        <_>
          <internalNodes>
            0 -1 52 1.2157831806689501e-03</internalNodes>
          <leafValues>
            -2.2459727525711060e-01 2.9369112849235535e-01</leafValues></_>
        <_>
          <internalNodes>
            0 -1 35 -2.4682539515197277e-04</internalNodes>
          <leafValues>
            -6.0213494300842285e-01 9.9835947155952454e-02</leafValues></_></weakClassifiers></_>
    <!-- stage 19 -->
    <_>
      <maxWeakCount>17</maxWeakCount>
      <stageThreshold>-1.4771342277526855e+00</stageThreshold>
      <weakClassifiers>
        <_>
          <internalNodes>
            0 -1 175 -7.1116425096988678e-03</internalNodes>
          <leafValues>
            -7.2727270424365997e-02 -7.4098056554794312e-01</leafValues></_>
        <_>
          <internalNodes>
            0 -1 101 -4.3534647673368454e-02</internalNodes>
          <leafValues>
            5.2941769361495972e-01 -2.6261210441589355e-01</leafValues></_>
        <_>
          <internalNodes>
            0 -1 169 7.4455980211496353e-03</internalNodes>
          <leafValues>
            -1.3544791936874390e-01 4.9655798077583313e-01</leafValues></_>
        <_>
          <internalNodes>
            0 -1 119 4.1817063465714455e-03</internalNodes>
          <leafValues>
            8.4100097417831421e-02 -7.8663939237594604e-01</leafValues></_>
        <_>
          <internalNodes>
            0 -1 120 -3.7371495272964239e-03</internalNodes>
          <leafValues>
            4.4357445836067200e-01 -1.0998620092868805e-01</leafValues></_>
        <_>
          <internalNodes>
            0 -1 93 -3.5496297641657293e-04</internalNodes>
          <leafValues>
            -6.2595582008361816e-01 8.4305167198181152e-02</leafValues></_>
        <_>
          <internalNodes>
            0 -1 188 -2.2903069853782654e-02</internalNodes>
          <leafValues>
            2.1594786643981934e-01 -2.7931278944015503e-01</leafValues></_>
        <_>
          <internalNodes>
            0 -1 42 -3.6011571064591408e-03</internalNodes>
          <leafValues>
            4.3897965550422668e-01 -1.4925022423267365e-01</leafValues></_>
        <_>
          <internalNodes>
            0 -1 49 -2.6020170189440250e-03</internalNodes>
          <leafValues>
            3.0157139897346497e-01 -2.0486789941787720e-01</leafValues></_>
        <_>
          <internalNodes>
            0 -1 151 1.1501424887683243e-04</internalNodes>
          <leafValues>
            1.1067196726799011e-01 -4.6930906176567078e-01</leafValues></_>
        <_>
          <internalNodes>
            0 -1 140 -9.9099625367671251e-04</internalNodes>
          <leafValues>
            -7.4698615074157715e-01 8.6473755538463593e-02</leafValues></_>
        <_>
          <internalNodes>
            0 -1 136 5.1094875670969486e-03</internalNodes>
          <leafValues>
            -2.2127065062522888e-01 3.1480321288108826e-01</leafValues></_>
        <_>
          <internalNodes>
            0 -1 85 -4.6270605525933206e-04</internalNodes>
          <leafValues>
            3.7342771887779236e-01 -1.5048174560070038e-01</leafValues></_>
        <_>
          <internalNodes>
            0 -1 82 -9.6514001488685608e-03</internalNodes>
          <leafValues>
            5.2253991365432739e-01 -1.0656457394361496e-01</leafValues></_>
        <_>
          <internalNodes>
            0 -1 157 9.8890229128301144e-04</internalNodes>
          <leafValues>
            1.7872703075408936e-01 -3.6874765157699585e-01</leafValues></_>
        <_>
          <internalNodes>
            0 -1 207 -1.0641506378306076e-04</internalNodes>
          <leafValues>
            -3.8417994976043701e-01 1.5838181972503662e-01</leafValues></_>
        <_>
          <internalNodes>
            0 -1 197 -1.0987192217726260e-04</internalNodes>
          <leafValues>
            2.2850392758846283e-01 -2.6576828956604004e-01</leafValues></_></weakClassifiers></_></stages>
  <features>
    <_>
      <rects>
        <_>
          0 0 8 1 -1.</_>
        <_>
          4 0 4 1 2.</_></rects>
      <tilted>0</tilted></_>
    <_>
      <rects>
        <_>
          0 0 12 2 -1.</_>
        <_>
          6 0 6 2 2.</_></rects>
      <tilted>0</tilted></_>
    <_>
      <rects>
        <_>
          0 1 4 6 -1.</_>
        <_>
          0 3 4 2 3.</_></rects>
      <tilted>0</tilted></_>
    <_>
      <rects>
        <_>
          0 1 24 20 -1.</_>
        <_>
          8 1 8 20 3.</_></rects>
      <tilted>0</tilted></_>
    <_>
      <rects>
        <_>
          0 2 3 1 -1.</_>
        <_>
          1 2 1 1 3.</_></rects>
      <tilted>0</tilted></_>
    <_>
      <rects>
        <_>
          0 3 1 12 -1.</_>
        <_>
          0 9 1 6 2.</_></rects>
      <tilted>0</tilted></_>
    <_>
      <rects>
        <_>
          0 3 24 2 -1.</_>
        <_>
          8 3 8 2 3.</_></rects>
      <tilted>0</tilted></_>
    <_>
      <rects>
        <_>
          0 4 21 9 -1.</_>
        <_>
          7 4 7 9 3.</_></rects>
      <tilted>0</tilted></_>
    <_>
      <rects>
        <_>
          0 8 6 10 -1.</_>
        <_>
          0 8 3 5 2.</_>
        <_>
          3 13 3 5 2.</_></rects>
      <tilted>0</tilted></_>
    <_>
      <rects>
        <_>
          0 9 22 9 -1.</_>
        <_>
          0 12 22 3 3.</_></rects>
      <tilted>0</tilted></_>
    <_>
      <rects>
        <_>
          0 10 6 9 -1.</_>
        <_>
          3 10 3 9 2.</_></rects>
      <tilted>0</tilted></_>
    <_>
      <rects>
        <_>
          0 11 9 3 -1.</_>
        <_>
          3 11 3 3 3.</_></rects>
      <tilted>0</tilted></_>
    <_>
      <rects>
        <_>
          0 11 8 12 -1.</_>
        <_>
          0 11 4 6 2.</_>
        <_>
          4 17 4 6 2.</_></rects>
      <tilted>0</tilted></_>
    <_>
      <rects>
        <_>
          0 12 4 4 -1.</_>
        <_>
          2 12 2 4 2.</_></rects>
      <tilted>0</tilted></_>
    <_>
      <rects>
        <_>
          0 12 8 2 -1.</_>
        <_>
          0 12 4 1 2.</_>
        <_>
          4 13 4 1 2.</_></rects>
      <tilted>0</tilted></_>
    <_>
      <rects>
        <_>
          0 13 4 4 -1.</_>
        <_>
          2 13 2 4 2.</_></rects>
      <tilted>0</tilted></_>
    <_>
      <rects>
        <_>
          0 13 6 10 -1.</_>
        <_>
          0 13 3 5 2.</_>
        <_>
          3 18 3 5 2.</_></rects>
      <tilted>0</tilted></_>
    <_>
      <rects>
        <_>
          0 14 24 2 -1.</_>
        <_>
          8 14 8 2 3.</_></rects>
      <tilted>0</tilted></_>
    <_>
      <rects>
        <_>
          0 15 1 4 -1.</_>
        <_>
          0 17 1 2 2.</_></rects>
      <tilted>0</tilted></_>
    <_>
      <rects>
        <_>
          0 15 1 6 -1.</_>
        <_>
          0 17 1 2 3.</_></rects>
      <tilted>0</tilted></_>
    <_>
      <rects>
        <_>
          0 15 1 9 -1.</_>
        <_>
          0 18 1 3 3.</_></rects>
      <tilted>0</tilted></_>
    <_>
      <rects>
        <_>
          0 15 1 8 -1.</_>
        <_>
          0 19 1 4 2.</_></rects>
      <tilted>0</tilted></_>
    <_>
      <rects>
        <_>
          0 15 6 6 -1.</_>
        <_>
          3 15 3 6 2.</_></rects>
      <tilted>0</tilted></_>
    <_>
      <rects>
        <_>
          0 15 9 7 -1.</_>
        <_>
          3 15 3 7 3.</_></rects>
      <tilted>0</tilted></_>
    <_>
      <rects>
        <_>
          0 16 4 3 -1.</_>
        <_>
          2 16 2 3 2.</_></rects>
      <tilted>0</tilted></_>
    <_>
      <rects>
        <_>
          0 16 6 6 -1.</_>
        <_>
          0 16 3 3 2.</_>
        <_>
          3 19 3 3 2.</_></rects>
      <tilted>0</tilted></_>
    <_>
      <rects>
        <_>
          0 16 7 6 -1.</_>
        <_>
          0 18 7 2 3.</_></rects>
      <tilted>0</tilted></_>
    <_>
      <rects>
        <_>
          0 18 1 2 -1.</_>
        <_>
          0 19 1 1 2.</_></rects>
      <tilted>0</tilted></_>
    <_>
      <rects>
        <_>
          0 18 4 3 -1.</_>
        <_>
          2 18 2 3 2.</_></rects>
      <tilted>0</tilted></_>
    <_>
      <rects>
        <_>
          0 18 10 6 -1.</_>
        <_>
          0 18 5 3 2.</_>
        <_>
          5 21 5 3 2.</_></rects>
      <tilted>0</tilted></_>
    <_>
      <rects>
        <_>
          0 19 2 4 -1.</_>
        <_>
          0 21 2 2 2.</_></rects>
      <tilted>0</tilted></_>
    <_>
      <rects>
        <_>
          0 20 8 2 -1.</_>
        <_>
          0 20 4 1 2.</_>
        <_>
          4 21 4 1 2.</_></rects>
      <tilted>0</tilted></_>
    <_>
      <rects>
        <_>
          0 21 1 3 -1.</_>
        <_>
          0 22 1 1 3.</_></rects>
      <tilted>0</tilted></_>
    <_>
      <rects>
        <_>
          0 21 14 3 -1.</_>
        <_>
          7 21 7 3 2.</_></rects>
      <tilted>0</tilted></_>
    <_>
      <rects>
        <_>
          0 22 2 2 -1.</_>
        <_>
          0 22 1 1 2.</_>
        <_>
          1 23 1 1 2.</_></rects>
      <tilted>0</tilted></_>
    <_>
      <rects>
        <_>
          0 22 4 2 -1.</_>
        <_>
          0 22 2 1 2.</_>
        <_>
          2 23 2 1 2.</_></rects>
      <tilted>0</tilted></_>
    <_>
      <rects>
        <_>
          1 1 2 2 -1.</_>
        <_>
          1 1 1 1 2.</_>
        <_>
          2 2 1 1 2.</_></rects>
      <tilted>0</tilted></_>
    <_>
      <rects>
        <_>
          1 1 22 19 -1.</_>
        <_>
          12 1 11 19 2.</_></rects>
      <tilted>0</tilted></_>
    <_>
      <rects>
        <_>
          1 2 6 14 -1.</_>
        <_>
          1 2 3 7 2.</_>
        <_>
          4 9 3 7 2.</_></rects>
      <tilted>0</tilted></_>
    <_>
      <rects>
        <_>
          1 8 8 2 -1.</_>
        <_>
          5 8 4 2 2.</_></rects>
      <tilted>0</tilted></_>
    <_>
      <rects>
        <_>
          1 11 3 4 -1.</_>
        <_>
          2 11 1 4 3.</_></rects>
      <tilted>0</tilted></_>
    <_>
      <rects>
        <_>
          1 12 4 12 -1.</_>
        <_>
          1 16 4 4 3.</_></rects>
      <tilted>0</tilted></_>
    <_>
      <rects>
        <_>
          1 13 4 4 -1.</_>
        <_>
          1 13 2 2 2.</_>
        <_>
          3 15 2 2 2.</_></rects>
      <tilted>0</tilted></_>
    <_>
      <rects>
        <_>
          1 18 4 4 -1.</_>
        <_>
          3 18 2 4 2.</_></rects>
      <tilted>0</tilted></_>
    <_>
      <rects>
        <_>
          1 20 8 4 -1.</_>
        <_>
          5 20 4 4 2.</_></rects>
      <tilted>0</tilted></_>
    <_>
      <rects>
        <_>
          1 23 3 1 -1.</_>
        <_>
          2 23 1 1 3.</_></rects>
      <tilted>0</tilted></_>
    <_>
      <rects>
        <_>
          2 0 3 4 -1.</_>
        <_>
          3 0 1 4 3.</_></rects>
      <tilted>0</tilted></_>
    <_>
      <rects>
        <_>
          2 2 20 22 -1.</_>
        <_>
          2 13 20 11 2.</_></rects>
      <tilted>0</tilted></_>
    <_>
      <rects>
        <_>
          2 8 6 12 -1.</_>
        <_>
          2 14 6 6 2.</_></rects>
      <tilted>0</tilted></_>
    <_>
      <rects>
        <_>
          2 11 6 2 -1.</_>
        <_>
          4 11 2 2 3.</_></rects>
      <tilted>0</tilted></_>
    <_>
      <rects>
        <_>
          2 18 10 4 -1.</_>
        <_>
          2 18 5 2 2.</_>
        <_>
          7 20 5 2 2.</_></rects>
      <tilted>0</tilted></_>
    <_>
      <rects>
        <_>
          2 23 3 1 -1.</_>
        <_>
          3 23 1 1 3.</_></rects>
      <tilted>0</tilted></_>
    <_>
      <rects>
        <_>
          3 1 2 14 -1.</_>
        <_>
          3 1 1 7 2.</_>
        <_>
          4 8 1 7 2.</_></rects>
      <tilted>0</tilted></_>
    <_>
      <rects>
        <_>
          3 5 3 17 -1.</_>
        <_>
          4 5 1 17 3.</_></rects>
      <tilted>0</tilted></_>
    <_>
      <rects>
        <_>
          3 5 7 16 -1.</_>
        <_>
          3 13 7 8 2.</_></rects>
      <tilted>0</tilted></_>
    <_>
      <rects>
        <_>
          3 10 16 3 -1.</_>
        <_>
          3 11 16 1 3.</_></rects>
      <tilted>0</tilted></_>
    <_>
      <rects>
        <_>
          3 14 7 4 -1.</_>
        <_>
          3 16 7 2 2.</_></rects>
      <tilted>0</tilted></_>
    <_>
      <rects>
        <_>
          3 15 12 8 -1.</_>
        <_>
          3 19 12 4 2.</_></rects>
      <tilted>0</tilted></_>
    <_>
      <rects>
        <_>
          3 22 7 2 -1.</_>
        <_>
          3 23 7 1 2.</_></rects>
      <tilted>0</tilted></_>
    <_>
      <rects>
        <_>
          3 23 3 1 -1.</_>
        <_>
          4 23 1 1 3.</_></rects>
      <tilted>0</tilted></_>
    <_>
      <rects>
        <_>
          4 0 4 1 -1.</_>
        <_>
          6 0 2 1 2.</_></rects>
      <tilted>0</tilted></_>
    <_>
      <rects>
        <_>
          4 6 4 4 -1.</_>
        <_>
          6 6 2 4 2.</_></rects>
      <tilted>0</tilted></_>
    <_>
      <rects>
        <_>
          4 7 2 12 -1.</_>
        <_>
          4 13 2 6 2.</_></rects>
      <tilted>0</tilted></_>
    <_>
      <rects>
        <_>
          4 11 3 1 -1.</_>
        <_>
          5 11 1 1 3.</_></rects>
      <tilted>0</tilted></_>
    <_>
      <rects>
        <_>
          4 11 15 6 -1.</_>
        <_>
          4 13 15 2 3.</_></rects>
      <tilted>0</tilted></_>
    <_>
      <rects>
        <_>
          4 16 6 8 -1.</_>
        <_>
          4 20 6 4 2.</_></rects>
      <tilted>0</tilted></_>
    <_>
      <rects>
        <_>
          4 22 3 2 -1.</_>
        <_>
          5 22 1 2 3.</_></rects>
      <tilted>0</tilted></_>
    <_>
      <rects>
        <_>
          5 0 9 6 -1.</_>
        <_>
          5 3 9 3 2.</_></rects>
      <tilted>0</tilted></_>
    <_>
      <rects>
        <_>
          5 1 3 16 -1.</_>
        <_>
          6 1 1 16 3.</_></rects>
      <tilted>0</tilted></_>
    <_>
      <rects>
        <_>
          5 3 2 1 -1.</_>
        <_>
          6 3 1 1 2.</_></rects>
      <tilted>0</tilted></_>
    <_>
      <rects>
        <_>
          5 3 6 7 -1.</_>
        <_>
          7 3 2 7 3.</_></rects>
      <tilted>0</tilted></_>
    <_>
      <rects>
        <_>
          5 6 10 18 -1.</_>
        <_>
          5 12 10 6 3.</_></rects>
      <tilted>0</tilted></_>
    <_>
      <rects>
        <_>
          5 7 6 1 -1.</_>
        <_>
          8 7 3 1 2.</_></rects>
      <tilted>0</tilted></_>
    <_>
      <rects>
        <_>
          5 9 6 2 -1.</_>
        <_>
          5 9 3 1 2.</_>
        <_>
          8 10 3 1 2.</_></rects>
      <tilted>0</tilted></_>
    <_>
      <rects>
        <_>
          5 12 2 1 -1.</_>
        <_>
          6 12 1 1 2.</_></rects>
      <tilted>0</tilted></_>
    <_>
      <rects>
        <_>
          5 12 8 12 -1.</_>
        <_>
          5 16 8 4 3.</_></rects>
      <tilted>0</tilted></_>
    <_>
      <rects>
        <_>
          5 15 7 3 -1.</_>
        <_>
          5 16 7 1 3.</_></rects>
      <tilted>0</tilted></_>
    <_>
      <rects>
        <_>
          5 16 4 2 -1.</_>
        <_>
          5 16 2 1 2.</_>
        <_>
          7 17 2 1 2.</_></rects>
      <tilted>0</tilted></_>
    <_>
      <rects>
        <_>
          5 17 18 3 -1.</_>
        <_>
          5 18 18 1 3.</_></rects>
      <tilted>0</tilted></_>
    <_>
      <rects>
        <_>
          5 21 7 2 -1.</_>
        <_>
          5 22 7 1 2.</_></rects>
      <tilted>0</tilted></_>
    <_>
      <rects>
        <_>
          6 0 18 1 -1.</_>
        <_>
          12 0 6 1 3.</_></rects>
      <tilted>0</tilted></_>
    <_>
      <rects>
        <_>
          6 1 4 2 -1.</_>
        <_>
          8 1 2 2 2.</_></rects>
      <tilted>0</tilted></_>
    <_>
      <rects>
        <_>
          6 1 17 2 -1.</_>
        <_>
          6 2 17 1 2.</_></rects>
      <tilted>0</tilted></_>
    <_>
      <rects>
        <_>
          6 4 18 6 -1.</_>
        <_>
          12 4 6 6 3.</_></rects>
      <tilted>0</tilted></_>
    <_>
      <rects>
        <_>
          6 5 4 1 -1.</_>
        <_>
          8 5 2 1 2.</_></rects>
      <tilted>0</tilted></_>
    <_>
      <rects>
        <_>
          6 7 2 2 -1.</_>
        <_>
          6 7 1 1 2.</_>
        <_>
          7 8 1 1 2.</_></rects>
      <tilted>0</tilted></_>
    <_>
      <rects>
        <_>
          6 7 15 8 -1.</_>
        <_>
          6 11 15 4 2.</_></rects>
      <tilted>0</tilted></_>
    <_>
      <rects>
        <_>
          6 9 3 15 -1.</_>
        <_>
          6 14 3 5 3.</_></rects>
      <tilted>0</tilted></_>
    <_>
      <rects>
        <_>
          6 11 3 12 -1.</_>
        <_>
          6 15 3 4 3.</_></rects>
      <tilted>0</tilted></_>
    <_>
      <rects>
        <_>
          6 16 4 3 -1.</_>
        <_>
          6 17 4 1 3.</_></rects>
      <tilted>0</tilted></_>
    <_>
      <rects>
        <_>
          6 17 1 2 -1.</_>
        <_>
          6 18 1 1 2.</_></rects>
      <tilted>0</tilted></_>
    <_>
      <rects>
        <_>
          6 17 1 4 -1.</_>
        <_>
          6 19 1 2 2.</_></rects>
      <tilted>0</tilted></_>
    <_>
      <rects>
        <_>
          6 20 13 4 -1.</_>
        <_>
          6 22 13 2 2.</_></rects>
      <tilted>0</tilted></_>
    <_>
      <rects>
        <_>
          6 21 3 1 -1.</_>
        <_>
          7 21 1 1 3.</_></rects>
      <tilted>0</tilted></_>
    <_>
      <rects>
        <_>
          6 22 3 1 -1.</_>
        <_>
          7 22 1 1 3.</_></rects>
      <tilted>0</tilted></_>
    <_>
      <rects>
        <_>
          7 2 3 4 -1.</_>
        <_>
          7 4 3 2 2.</_></rects>
      <tilted>0</tilted></_>
    <_>
      <rects>
        <_>
          7 2 3 6 -1.</_>
        <_>
          7 4 3 2 3.</_></rects>
      <tilted>0</tilted></_>
    <_>
      <rects>
        <_>
          7 3 12 6 -1.</_>
        <_>
          7 5 12 2 3.</_></rects>
      <tilted>0</tilted></_>
    <_>
      <rects>
        <_>
          7 4 13 3 -1.</_>
        <_>
          7 5 13 1 3.</_></rects>
      <tilted>0</tilted></_>
    <_>
      <rects>
        <_>
          7 6 6 6 -1.</_>
        <_>
          10 6 3 6 2.</_></rects>
      <tilted>0</tilted></_>
    <_>
      <rects>
        <_>
          7 7 9 6 -1.</_>
        <_>
          7 9 9 2 3.</_></rects>
      <tilted>0</tilted></_>
    <_>
      <rects>
        <_>
          7 12 2 12 -1.</_>
        <_>
          7 18 2 6 2.</_></rects>
      <tilted>0</tilted></_>
    <_>
      <rects>
        <_>
          7 17 3 6 -1.</_>
        <_>
          7 20 3 3 2.</_></rects>
      <tilted>0</tilted></_>
    <_>
      <rects>
        <_>
          7 17 13 3 -1.</_>
        <_>
          7 18 13 1 3.</_></rects>
      <tilted>0</tilted></_>
    <_>
      <rects>
        <_>
          7 18 5 6 -1.</_>
        <_>
          7 20 5 2 3.</_></rects>
      <tilted>0</tilted></_>
    <_>
      <rects>
        <_>
          7 22 3 1 -1.</_>
        <_>
          8 22 1 1 3.</_></rects>
      <tilted>0</tilted></_>
    <_>
      <rects>
        <_>
          7 22 3 2 -1.</_>
        <_>
          8 22 1 2 3.</_></rects>
      <tilted>0</tilted></_>
    <_>
      <rects>
        <_>
          7 23 3 1 -1.</_>
        <_>
          8 23 1 1 3.</_></rects>
      <tilted>0</tilted></_>
    <_>
      <rects>
        <_>
          8 1 13 6 -1.</_>
        <_>
          8 3 13 2 3.</_></rects>
      <tilted>0</tilted></_>
    <_>
      <rects>
        <_>
          8 4 9 3 -1.</_>
        <_>
          8 5 9 1 3.</_></rects>
      <tilted>0</tilted></_>
    <_>
      <rects>
        <_>
          8 5 1 2 -1.</_>
        <_>
          8 6 1 1 2.</_></rects>
      <tilted>0</tilted></_>
    <_>
      <rects>
        <_>
          8 9 2 4 -1.</_>
        <_>
          8 11 2 2 2.</_></rects>
      <tilted>0</tilted></_>
    <_>
      <rects>
        <_>
          8 14 12 10 -1.</_>
        <_>
          8 14 6 5 2.</_>
        <_>
          14 19 6 5 2.</_></rects>
      <tilted>0</tilted></_>
    <_>
      <rects>
        <_>
          8 18 1 3 -1.</_>
        <_>
          8 19 1 1 3.</_></rects>
      <tilted>0</tilted></_>
    <_>
      <rects>
        <_>
          8 18 2 6 -1.</_>
        <_>
          8 21 2 3 2.</_></rects>
      <tilted>0</tilted></_>
    <_>
      <rects>
        <_>
          8 18 9 1 -1.</_>
        <_>
          11 18 3 1 3.</_></rects>
      <tilted>0</tilted></_>
    <_>
      <rects>
        <_>
          8 21 2 3 -1.</_>
        <_>
          9 21 1 3 2.</_></rects>
      <tilted>0</tilted></_>
    <_>
      <rects>
        <_>
          9 0 10 6 -1.</_>
        <_>
          9 2 10 2 3.</_></rects>
      <tilted>0</tilted></_>
    <_>
      <rects>
        <_>
          9 1 5 6 -1.</_>
        <_>
          9 4 5 3 2.</_></rects>
      <tilted>0</tilted></_>
    <_>
      <rects>
        <_>
          9 5 3 5 -1.</_>
        <_>
          10 5 1 5 3.</_></rects>
      <tilted>0</tilted></_>
    <_>
      <rects>
        <_>
          9 6 2 16 -1.</_>
        <_>
          9 6 1 8 2.</_>
        <_>
          10 14 1 8 2.</_></rects>
      <tilted>0</tilted></_>
    <_>
      <rects>
        <_>
          9 11 12 3 -1.</_>
        <_>
          9 12 12 1 3.</_></rects>
      <tilted>0</tilted></_>
    <_>
      <rects>
        <_>
          9 22 1 2 -1.</_>
        <_>
          9 23 1 1 2.</_></rects>
      <tilted>0</tilted></_>
    <_>
      <rects>
        <_>
          9 22 3 1 -1.</_>
        <_>
          10 22 1 1 3.</_></rects>
      <tilted>0</tilted></_>
    <_>
      <rects>
        <_>
          10 0 3 16 -1.</_>
        <_>
          11 0 1 16 3.</_></rects>
      <tilted>0</tilted></_>
    <_>
      <rects>
        <_>
          10 8 5 6 -1.</_>
        <_>
          10 10 5 2 3.</_></rects>
      <tilted>0</tilted></_>
    <_>
      <rects>
        <_>
          10 9 1 2 -1.</_>
        <_>
          10 10 1 1 2.</_></rects>
      <tilted>0</tilted></_>
    <_>
      <rects>
        <_>
          10 14 4 8 -1.</_>
        <_>
          10 18 4 4 2.</_></rects>
      <tilted>0</tilted></_>
    <_>
      <rects>
        <_>
          10 15 1 9 -1.</_>
        <_>
          10 18 1 3 3.</_></rects>
      <tilted>0</tilted></_>
    <_>
      <rects>
        <_>
          10 16 6 5 -1.</_>
        <_>
          12 16 2 5 3.</_></rects>
      <tilted>0</tilted></_>
    <_>
      <rects>
        <_>
          10 18 4 2 -1.</_>
        <_>
          10 19 4 1 2.</_></rects>
      <tilted>0</tilted></_>
    <_>
      <rects>
        <_>
          10 22 3 1 -1.</_>
        <_>
          11 22 1 1 3.</_></rects>
      <tilted>0</tilted></_>
    <_>
      <rects>
        <_>
          11 8 3 6 -1.</_>
        <_>
          11 10 3 2 3.</_></rects>
      <tilted>0</tilted></_>
    <_>
      <rects>
        <_>
          11 11 4 2 -1.</_>
        <_>
          11 12 4 1 2.</_></rects>
      <tilted>0</tilted></_>
    <_>
      <rects>
        <_>
          11 14 8 6 -1.</_>
        <_>
          11 14 4 3 2.</_>
        <_>
          15 17 4 3 2.</_></rects>
      <tilted>0</tilted></_>
    <_>
      <rects>
        <_>
          11 18 4 6 -1.</_>
        <_>
          13 18 2 6 2.</_></rects>
      <tilted>0</tilted></_>
    <_>
      <rects>
        <_>
          11 20 10 2 -1.</_>
        <_>
          16 20 5 2 2.</_></rects>
      <tilted>0</tilted></_>
    <_>
      <rects>
        <_>
          11 21 1 2 -1.</_>
        <_>
          11 22 1 1 2.</_></rects>
      <tilted>0</tilted></_>
    <_>
      <rects>
        <_>
          11 22 2 2 -1.</_>
        <_>
          11 23 2 1 2.</_></rects>
      <tilted>0</tilted></_>
    <_>
      <rects>
        <_>
          11 23 3 1 -1.</_>
        <_>
          12 23 1 1 3.</_></rects>
      <tilted>0</tilted></_>
    <_>
      <rects>
        <_>
          11 23 6 1 -1.</_>
        <_>
          13 23 2 1 3.</_></rects>
      <tilted>0</tilted></_>
    <_>
      <rects>
        <_>
          12 0 12 1 -1.</_>
        <_>
          18 0 6 1 2.</_></rects>
      <tilted>0</tilted></_>
    <_>
      <rects>
        <_>
          12 5 10 4 -1.</_>
        <_>
          17 5 5 4 2.</_></rects>
      <tilted>0</tilted></_>
    <_>
      <rects>
        <_>
          12 22 3 2 -1.</_>
        <_>
          13 22 1 2 3.</_></rects>
      <tilted>0</tilted></_>
    <_>
      <rects>
        <_>
          12 23 6 1 -1.</_>
        <_>
          14 23 2 1 3.</_></rects>
      <tilted>0</tilted></_>
    <_>
      <rects>
        <_>
          13 0 9 1 -1.</_>
        <_>
          16 0 3 1 3.</_></rects>
      <tilted>0</tilted></_>
    <_>
      <rects>
        <_>
          13 0 8 22 -1.</_>
        <_>
          13 11 8 11 2.</_></rects>
      <tilted>0</tilted></_>
    <_>
      <rects>
        <_>
          13 9 7 4 -1.</_>
        <_>
          13 11 7 2 2.</_></rects>
      <tilted>0</tilted></_>
    <_>
      <rects>
        <_>
          13 12 2 12 -1.</_>
        <_>
          13 16 2 4 3.</_></rects>
      <tilted>0</tilted></_>
    <_>
      <rects>
        <_>
          13 18 10 6 -1.</_>
        <_>
          13 21 10 3 2.</_></rects>
      <tilted>0</tilted></_>
    <_>
      <rects>
        <_>
          13 22 2 2 -1.</_>
        <_>
          13 23 2 1 2.</_></rects>
      <tilted>0</tilted></_>
    <_>
      <rects>
        <_>
          13 23 3 1 -1.</_>
        <_>
          14 23 1 1 3.</_></rects>
      <tilted>0</tilted></_>
    <_>
      <rects>
        <_>
          14 0 10 8 -1.</_>
        <_>
          14 0 5 4 2.</_>
        <_>
          19 4 5 4 2.</_></rects>
      <tilted>0</tilted></_>
    <_>
      <rects>
        <_>
          14 11 2 4 -1.</_>
        <_>
          14 11 1 2 2.</_>
        <_>
          15 13 1 2 2.</_></rects>
      <tilted>0</tilted></_>
    <_>
      <rects>
        <_>
          14 16 10 2 -1.</_>
        <_>
          19 16 5 2 2.</_></rects>
      <tilted>0</tilted></_>
    <_>
      <rects>
        <_>
          14 16 10 7 -1.</_>
        <_>
          19 16 5 7 2.</_></rects>
      <tilted>0</tilted></_>
    <_>
      <rects>
        <_>
          14 18 5 6 -1.</_>
        <_>
          14 21 5 3 2.</_></rects>
      <tilted>0</tilted></_>
    <_>
      <rects>
        <_>
          14 21 9 3 -1.</_>
        <_>
          14 22 9 1 3.</_></rects>
      <tilted>0</tilted></_>
    <_>
      <rects>
        <_>
          15 2 6 5 -1.</_>
        <_>
          18 2 3 5 2.</_></rects>
      <tilted>0</tilted></_>
    <_>
      <rects>
        <_>
          15 12 9 5 -1.</_>
        <_>
          18 12 3 5 3.</_></rects>
      <tilted>0</tilted></_>
    <_>
      <rects>
        <_>
          15 12 8 3 -1.</_>
        <_>
          19 12 4 3 2.</_></rects>
      <tilted>0</tilted></_>
    <_>
      <rects>
        <_>
          15 13 9 3 -1.</_>
        <_>
          18 13 3 3 3.</_></rects>
      <tilted>0</tilted></_>
    <_>
      <rects>
        <_>
          15 15 6 3 -1.</_>
        <_>
          17 15 2 3 3.</_></rects>
      <tilted>0</tilted></_>
    <_>
      <rects>
        <_>
          16 0 6 4 -1.</_>
        <_>
          16 0 3 2 2.</_>
        <_>
          19 2 3 2 2.</_></rects>
      <tilted>0</tilted></_>
    <_>
      <rects>
        <_>
          16 2 4 8 -1.</_>
        <_>
          16 2 2 4 2.</_>
        <_>
          18 6 2 4 2.</_></rects>
      <tilted>0</tilted></_>
    <_>
      <rects>
        <_>
          16 2 6 5 -1.</_>
        <_>
          18 2 2 5 3.</_></rects>
      <tilted>0</tilted></_>
    <_>
      <rects>
        <_>
          16 4 4 2 -1.</_>
        <_>
          18 4 2 2 2.</_></rects>
      <tilted>0</tilted></_>
    <_>
      <rects>
        <_>
          16 6 2 2 -1.</_>
        <_>
          16 6 1 1 2.</_>
        <_>
          17 7 1 1 2.</_></rects>
      <tilted>0</tilted></_>
    <_>
      <rects>
        <_>
          16 8 8 2 -1.</_>
        <_>
          20 8 4 2 2.</_></rects>
      <tilted>0</tilted></_>
    <_>
      <rects>
        <_>
          16 12 1 10 -1.</_>
        <_>
          16 17 1 5 2.</_></rects>
      <tilted>0</tilted></_>
    <_>
      <rects>
        <_>
          16 15 8 8 -1.</_>
        <_>
          20 15 4 8 2.</_></rects>
      <tilted>0</tilted></_>
    <_>
      <rects>
        <_>
          16 18 3 6 -1.</_>
        <_>
          16 21 3 3 2.</_></rects>
      <tilted>0</tilted></_>
    <_>
      <rects>
        <_>
          16 21 6 3 -1.</_>
        <_>
          18 21 2 3 3.</_></rects>
      <tilted>0</tilted></_>
    <_>
      <rects>
        <_>
          17 0 4 1 -1.</_>
        <_>
          19 0 2 1 2.</_></rects>
      <tilted>0</tilted></_>
    <_>
      <rects>
        <_>
          17 0 4 2 -1.</_>
        <_>
          17 0 2 1 2.</_>
        <_>
          19 1 2 1 2.</_></rects>
      <tilted>0</tilted></_>
    <_>
      <rects>
        <_>
          17 2 4 2 -1.</_>
        <_>
          19 2 2 2 2.</_></rects>
      <tilted>0</tilted></_>
    <_>
      <rects>
        <_>
          17 4 7 2 -1.</_>
        <_>
          17 5 7 1 2.</_></rects>
      <tilted>0</tilted></_>
    <_>
      <rects>
        <_>
          17 9 6 14 -1.</_>
        <_>
          17 9 3 7 2.</_>
        <_>
          20 16 3 7 2.</_></rects>
      <tilted>0</tilted></_>
    <_>
      <rects>
        <_>
          17 23 6 1 -1.</_>
        <_>
          19 23 2 1 3.</_></rects>
      <tilted>0</tilted></_>
    <_>
      <rects>
        <_>
          18 0 6 2 -1.</_>
        <_>
          18 0 3 1 2.</_>
        <_>
          21 1 3 1 2.</_></rects>
      <tilted>0</tilted></_>
    <_>
      <rects>
        <_>
          18 3 6 16 -1.</_>
        <_>
          18 3 3 8 2.</_>
        <_>
          21 11 3 8 2.</_></rects>
      <tilted>0</tilted></_>
    <_>
      <rects>
        <_>
          18 5 5 3 -1.</_>
        <_>
          18 6 5 1 3.</_></rects>
      <tilted>0</tilted></_>
    <_>
      <rects>
        <_>
          18 9 6 9 -1.</_>
        <_>
          20 9 2 9 3.</_></rects>
      <tilted>0</tilted></_>
    <_>
      <rects>
        <_>
          18 13 4 2 -1.</_>
        <_>
          18 13 2 1 2.</_>
        <_>
          20 14 2 1 2.</_></rects>
      <tilted>0</tilted></_>
    <_>
      <rects>
        <_>
          18 14 6 8 -1.</_>
        <_>
          21 14 3 8 2.</_></rects>
      <tilted>0</tilted></_>
    <_>
      <rects>
        <_>
          18 23 3 1 -1.</_>
        <_>
          19 23 1 1 3.</_></rects>
      <tilted>0</tilted></_>
    <_>
      <rects>
        <_>
          18 23 6 1 -1.</_>
        <_>
          20 23 2 1 3.</_></rects>
      <tilted>0</tilted></_>
    <_>
      <rects>
        <_>
          19 0 2 1 -1.</_>
        <_>
          20 0 1 1 2.</_></rects>
      <tilted>0</tilted></_>
    <_>
      <rects>
        <_>
          19 3 5 20 -1.</_>
        <_>
          19 13 5 10 2.</_></rects>
      <tilted>0</tilted></_>
    <_>
      <rects>
        <_>
          19 7 4 7 -1.</_>
        <_>
          21 7 2 7 2.</_></rects>
      <tilted>0</tilted></_>
    <_>
      <rects>
        <_>
          19 9 5 8 -1.</_>
        <_>
          19 13 5 4 2.</_></rects>
      <tilted>0</tilted></_>
    <_>
      <rects>
        <_>
          19 11 3 1 -1.</_>
        <_>
          20 11 1 1 3.</_></rects>
      <tilted>0</tilted></_>
    <_>
      <rects>
        <_>
          19 12 1 3 -1.</_>
        <_>
          19 13 1 1 3.</_></rects>
      <tilted>0</tilted></_>
    <_>
      <rects>
        <_>
          19 13 2 2 -1.</_>
        <_>
          20 13 1 2 2.</_></rects>
      <tilted>0</tilted></_>
    <_>
      <rects>
        <_>
          20 0 2 1 -1.</_>
        <_>
          21 0 1 1 2.</_></rects>
      <tilted>0</tilted></_>
    <_>
      <rects>
        <_>
          20 0 3 1 -1.</_>
        <_>
          21 0 1 1 3.</_></rects>
      <tilted>0</tilted></_>
    <_>
      <rects>
        <_>
          20 1 2 2 -1.</_>
        <_>
          20 1 1 1 2.</_>
        <_>
          21 2 1 1 2.</_></rects>
      <tilted>0</tilted></_>
    <_>
      <rects>
        <_>
          20 10 2 2 -1.</_>
        <_>
          21 10 1 2 2.</_></rects>
      <tilted>0</tilted></_>
    <_>
      <rects>
        <_>
          20 10 3 11 -1.</_>
        <_>
          21 10 1 11 3.</_></rects>
      <tilted>0</tilted></_>
    <_>
      <rects>
        <_>
          20 15 4 8 -1.</_>
        <_>
          20 15 2 4 2.</_>
        <_>
          22 19 2 4 2.</_></rects>
      <tilted>0</tilted></_>
    <_>
      <rects>
        <_>
          20 22 4 2 -1.</_>
        <_>
          20 22 2 1 2.</_>
        <_>
          22 23 2 1 2.</_></rects>
      <tilted>0</tilted></_>
    <_>
      <rects>
        <_>
          21 1 3 2 -1.</_>
        <_>
          22 1 1 2 3.</_></rects>
      <tilted>0</tilted></_>
    <_>
      <rects>
        <_>
          21 8 3 10 -1.</_>
        <_>
          22 8 1 10 3.</_></rects>
      <tilted>0</tilted></_>
    <_>
      <rects>
        <_>
          21 12 3 12 -1.</_>
        <_>
          21 16 3 4 3.</_></rects>
      <tilted>0</tilted></_>
    <_>
      <rects>
        <_>
          21 16 2 1 -1.</_>
        <_>
          22 16 1 1 2.</_></rects>
      <tilted>0</tilted></_>
    <_>
      <rects>
        <_>
          21 20 2 4 -1.</_>
        <_>
          21 20 1 2 2.</_>
        <_>
          22 22 1 2 2.</_></rects>
      <tilted>0</tilted></_>
    <_>
      <rects>
        <_>
          22 0 2 1 -1.</_>
        <_>
          23 0 1 1 2.</_></rects>
      <tilted>0</tilted></_>
    <_>
      <rects>
        <_>
          22 3 2 4 -1.</_>
        <_>
          22 3 1 2 2.</_>
        <_>
          23 5 1 2 2.</_></rects>
      <tilted>0</tilted></_>
    <_>
      <rects>
        <_>
          22 4 2 2 -1.</_>
        <_>
          23 4 1 2 2.</_></rects>
      <tilted>0</tilted></_>
    <_>
      <rects>
        <_>
          22 12 2 9 -1.</_>
        <_>
          22 15 2 3 3.</_></rects>
      <tilted>0</tilted></_>
    <_>
      <rects>
        <_>
          22 12 2 12 -1.</_>
        <_>
          22 16 2 4 3.</_></rects>
      <tilted>0</tilted></_>
    <_>
      <rects>
        <_>
          22 13 2 1 -1.</_>
        <_>
          23 13 1 1 2.</_></rects>
      <tilted>0</tilted></_>
    <_>
      <rects>
        <_>
          22 16 2 6 -1.</_>
        <_>
          22 18 2 2 3.</_></rects>
      <tilted>0</tilted></_>
    <_>
      <rects>
        <_>
          23 16 1 3 -1.</_>
        <_>
          23 17 1 1 3.</_></rects>
      <tilted>0</tilted></_>
    <_>
      <rects>
        <_>
          23 16 1 6 -1.</_>
        <_>
          23 18 1 2 3.</_></rects>
      <tilted>0</tilted></_>
    <_>
      <rects>
        <_>
          23 16 1 8 -1.</_>
        <_>
          23 20 1 4 2.</_></rects>
      <tilted>0</tilted></_>
    <_>
      <rects>
        <_>
          23 17 1 2 -1.</_>
        <_>
          23 18 1 1 2.</_></rects>
      <tilted>0</tilted></_></features></cascade>
</opencv_storage>
