<?xml version="1.0"?>
<opencv_storage>
<cascade>
  <stageType>BOOST</stageType>
  <featureType>HAAR</featureType>
  <height>24</height>
  <width>24</width>
  <stageParams>
    <boostType>GAB</boostType>
    <minHitRate>9.9500000476837158e-01</minHitRate>
    <maxFalseAlarm>5.0000000000000000e-01</maxFalseAlarm>
    <weightTrimRate>9.4999998807907104e-01</weightTrimRate>
    <maxDepth>1</maxDepth>
    <maxWeakCount>100</maxWeakCount></stageParams>
  <featureParams>
    <maxCatCount>0</maxCatCount>
    <featSize>1</featSize>
    <mode>BASIC</mode></featureParams>
  <stageNum>12</stageNum>
  <stages>
    <!-- stage 0 -->
    <_>
      <maxWeakCount>4</maxWeakCount>
      <stageThreshold>-2.0271923542022705e+00</stageThreshold>
      <weakClassifiers>
        <_>
          <internalNodes>
            0 -1 12 1.9063466787338257e-01</internalNodes>
          <leafValues>
            -9.6850395202636719e-01 1.</leafValues></_>
        <_>
          <internalNodes>
            0 -1 25 -7.6642081141471863e-02</internalNodes>
          <leafValues>
            6.0133266448974609e-01 -9.3169212341308594e-01</leafValues></_>
        <_>
          <internalNodes>
            0 -1 38 -3.5247698426246643e-02</internalNodes>
          <leafValues>
            5.5329680442810059e-01 -8.3462399244308472e-01</leafValues></_>
        <_>
          <internalNodes>
            0 -1 3 -2.0222041010856628e-01</internalNodes>
          <leafValues>
            8.6595743894577026e-01 -6.8029320240020752e-01</leafValues></_></weakClassifiers></_>
    <!-- stage 1 -->
    <_>
      <maxWeakCount>4</maxWeakCount>
      <stageThreshold>-2.0871672630310059e+00</stageThreshold>
      <weakClassifiers>
        <_>
          <internalNodes>
            0 -1 33 6.1000347137451172e-02</internalNodes>
          <leafValues>
            -9.5882350206375122e-01 7.1428573131561279e-01</leafValues></_>
        <_>
          <internalNodes>
            0 -1 45 3.0973911285400391e-02</internalNodes>
          <leafValues>
            -8.1638419628143311e-01 3.6394852399826050e-01</leafValues></_>
        <_>
          <internalNodes>
            0 -1 39 -3.0305802822113037e-02</internalNodes>
          <leafValues>
            4.6160042285919189e-01 -7.0268160104751587e-01</leafValues></_>
        <_>
          <internalNodes>
            0 -1 20 -9.8791189491748810e-02</internalNodes>
          <leafValues>
            4.8434475064277649e-01 -7.7356004714965820e-01</leafValues></_></weakClassifiers></_>
    <!-- stage 2 -->
    <_>
      <maxWeakCount>4</maxWeakCount>
      <stageThreshold>-2.0997183322906494e+00</stageThreshold>
      <weakClassifiers>
        <_>
          <internalNodes>
            0 -1 8 -2.0764479041099548e-01</internalNodes>
          <leafValues>
            1. -9.5312500000000000e-01</leafValues></_>
        <_>
          <internalNodes>
            0 -1 16 8.8380537927150726e-03</internalNodes>
          <leafValues>
            -8.6494106054306030e-01 1.4038051664829254e-01</leafValues></_>
        <_>
          <internalNodes>
            0 -1 4 -1.4730194583535194e-02</internalNodes>
          <leafValues>
            5.0707918405532837e-01 -6.3560378551483154e-01</leafValues></_>
        <_>
          <internalNodes>
            0 -1 2 -3.1240601092576981e-02</internalNodes>
          <leafValues>
            3.5395166277885437e-01 -6.9651103019714355e-01</leafValues></_></weakClassifiers></_>
    <!-- stage 3 -->
    <_>
      <maxWeakCount>4</maxWeakCount>
      <stageThreshold>-1.8459554910659790e+00</stageThreshold>
      <weakClassifiers>
        <_>
          <internalNodes>
            0 -1 15 4.3810009956359863e-02</internalNodes>
          <leafValues>
            -9.7125256061553955e-01 -5.0943398475646973e-01</leafValues></_>
        <_>
          <internalNodes>
            0 -1 11 -1.1092633008956909e-01</internalNodes>
          <leafValues>
            3.0077788233757019e-01 -8.1875282526016235e-01</leafValues></_>
        <_>
          <internalNodes>
            0 -1 16 8.7618436664342880e-03</internalNodes>
          <leafValues>
            -5.8582323789596558e-01 6.0235208272933960e-01</leafValues></_>
        <_>
          <internalNodes>
            0 -1 49 2.9085669666528702e-03</internalNodes>
          <leafValues>
            -5.8965760469436646e-01 5.7514721155166626e-01</leafValues></_></weakClassifiers></_>
    <!-- stage 4 -->
    <_>
      <maxWeakCount>5</maxWeakCount>
      <stageThreshold>-2.1484844684600830e+00</stageThreshold>
      <weakClassifiers>
        <_>
          <internalNodes>
            0 -1 41 5.4117690771818161e-02</internalNodes>
          <leafValues>
            -9.5312500000000000e-01 1.</leafValues></_>
        <_>
          <internalNodes>
            0 -1 43 -7.9602181911468506e-02</internalNodes>
          <leafValues>
            2.2571092844009399e-01 -7.9947751760482788e-01</leafValues></_>
        <_>
          <internalNodes>
            0 -1 32 -2.3886593990027905e-03</internalNodes>
          <leafValues>
            3.0027019977569580e-01 -6.7507123947143555e-01</leafValues></_>
        <_>
          <internalNodes>
            0 -1 47 -4.3282136903144419e-04</internalNodes>
          <leafValues>
            -8.8399225473403931e-01 2.8002089262008667e-01</leafValues></_>
        <_>
          <internalNodes>
            0 -1 9 1.1760091874748468e-03</internalNodes>
          <leafValues>
            1.8784014880657196e-01 -1.</leafValues></_></weakClassifiers></_>
    <!-- stage 5 -->
    <_>
      <maxWeakCount>4</maxWeakCount>
      <stageThreshold>-1.9662131071090698e+00</stageThreshold>
      <weakClassifiers>
        <_>
          <internalNodes>
            0 -1 29 5.6304607540369034e-02</internalNodes>
          <leafValues>
            -9.5312500000000000e-01 1.</leafValues></_>
        <_>
          <internalNodes>
            0 -1 22 1.4430581033229828e-01</internalNodes>
          <leafValues>
            -8.1837576627731323e-01 8.2702584564685822e-02</leafValues></_>
        <_>
          <internalNodes>
            0 -1 18 -3.8622614741325378e-01</internalNodes>
          <leafValues>
            5.2056854963302612e-01 -5.3714030981063843e-01</leafValues></_>
        <_>
          <internalNodes>
            0 -1 35 3.9783762767910957e-03</internalNodes>
          <leafValues>
            -5.5865043401718140e-01 4.3927997350692749e-01</leafValues></_></weakClassifiers></_>
    <!-- stage 6 -->
    <_>
      <maxWeakCount>5</maxWeakCount>
      <stageThreshold>-1.8179852962493896e+00</stageThreshold>
      <weakClassifiers>
        <_>
          <internalNodes>
            0 -1 44 3.0716676265001297e-02</internalNodes>
          <leafValues>
            -9.5857989788055420e-01 -7.6923079788684845e-02</leafValues></_>
        <_>
          <internalNodes>
            0 -1 30 1.2986713647842407e-01</internalNodes>
          <leafValues>
            -7.7621632814407349e-01 4.7835230827331543e-01</leafValues></_>
        <_>
          <internalNodes>
            0 -1 14 5.8028846979141235e-05</internalNodes>
          <leafValues>
            3.7348676472902298e-02 -9.0826314687728882e-01</leafValues></_>
        <_>
          <internalNodes>
            0 -1 48 -3.3679371699690819e-03</internalNodes>
          <leafValues>
            4.7837859392166138e-01 -4.6364653110504150e-01</leafValues></_>
        <_>
          <internalNodes>
            0 -1 46 4.0803095325827599e-03</internalNodes>
          <leafValues>
            -5.3496140241622925e-01 4.7878521680831909e-01</leafValues></_></weakClassifiers></_>
    <!-- stage 7 -->
    <_>
      <maxWeakCount>5</maxWeakCount>
      <stageThreshold>-2.0284636020660400e+00</stageThreshold>
      <weakClassifiers>
        <_>
          <internalNodes>
            0 -1 19 -1.9974416494369507e-01</internalNodes>
          <leafValues>
            6.0000002384185791e-01 -9.5499020814895630e-01</leafValues></_>
        <_>
          <internalNodes>
            0 -1 21 -2.8409432619810104e-02</internalNodes>
          <leafValues>
            -2.3825463652610779e-01 -8.5745877027511597e-01</leafValues></_>
        <_>
          <internalNodes>
            0 -1 13 -1.4517420902848244e-02</internalNodes>
          <leafValues>
            2.7048444747924805e-01 -6.4732491970062256e-01</leafValues></_>
        <_>
          <internalNodes>
            0 -1 26 3.0980177689343691e-04</internalNodes>
          <leafValues>
            2.0742249488830566e-01 -9.1675806045532227e-01</leafValues></_>
        <_>
          <internalNodes>
            0 -1 50 2.0208036585245281e-04</internalNodes>
          <leafValues>
            2.2388790547847748e-01 -8.7187415361404419e-01</leafValues></_></weakClassifiers></_>
    <!-- stage 8 -->
    <_>
      <maxWeakCount>5</maxWeakCount>
      <stageThreshold>-1.6690992116928101e+00</stageThreshold>
      <weakClassifiers>
        <_>
          <internalNodes>
            0 -1 37 -1.1292999610304832e-02</internalNodes>
          <leafValues>
            5.0000000000000000e-01 -9.5307916402816772e-01</leafValues></_>
        <_>
          <internalNodes>
            0 -1 17 -2.7907311916351318e-01</internalNodes>
          <leafValues>
            2.5331524014472961e-01 -7.9504990577697754e-01</leafValues></_>
        <_>
          <internalNodes>
            0 -1 40 1.3071723282337189e-02</internalNodes>
          <leafValues>
            -6.6205304861068726e-01 3.3544108271598816e-01</leafValues></_>
        <_>
          <internalNodes>
            0 -1 27 -3.4345011226832867e-04</internalNodes>
          <leafValues>
            -9.0996420383453369e-01 1.9358667731285095e-01</leafValues></_>
        <_>
          <internalNodes>
            0 -1 5 -1.1749917175620794e-03</internalNodes>
          <leafValues>
            5.4749619960784912e-01 -4.3847984075546265e-01</leafValues></_></weakClassifiers></_>
    <!-- stage 9 -->
    <_>
      <maxWeakCount>5</maxWeakCount>
      <stageThreshold>-1.9553165435791016e+00</stageThreshold>
      <weakClassifiers>
        <_>
          <internalNodes>
            0 -1 34 3.9252541959285736e-02</internalNodes>
          <leafValues>
            -9.5312500000000000e-01 1.</leafValues></_>
        <_>
          <internalNodes>
            0 -1 28 -4.3972209095954895e-02</internalNodes>
          <leafValues>
            1.2967839837074280e-02 -8.0628561973571777e-01</leafValues></_>
        <_>
          <internalNodes>
            0 -1 51 3.2561580155743286e-05</internalNodes>
          <leafValues>
            8.5205070674419403e-02 -8.0166536569595337e-01</leafValues></_>
        <_>
          <internalNodes>
            0 -1 6 -1.8560748139861971e-04</internalNodes>
          <leafValues>
            -1. 1.5453334152698517e-01</leafValues></_>
        <_>
          <internalNodes>
            0 -1 1 -2.6067009568214417e-01</internalNodes>
          <leafValues>
            6.6698455810546875e-01 -3.6802732944488525e-01</leafValues></_></weakClassifiers></_>
    <!-- stage 10 -->
    <_>
      <maxWeakCount>5</maxWeakCount>
      <stageThreshold>-1.6871515512466431e+00</stageThreshold>
      <weakClassifiers>
        <_>
          <internalNodes>
            0 -1 24 -2.6292823255062103e-02</internalNodes>
          <leafValues>
            1. -9.5312500000000000e-01</leafValues></_>
        <_>
          <internalNodes>
            0 -1 31 -1.0370155796408653e-02</internalNodes>
          <leafValues>
            7.4119454622268677e-01 -7.8279876708984375e-01</leafValues></_>
        <_>
          <internalNodes>
            0 -1 6 2.1325451962184161e-04</internalNodes>
          <leafValues>
            1.6977822780609131e-01 -7.6706641912460327e-01</leafValues></_>
        <_>
          <internalNodes>
            0 -1 0 -1.3691100291907787e-02</internalNodes>
          <leafValues>
            4.1766849160194397e-01 -5.8289748430252075e-01</leafValues></_>
        <_>
          <internalNodes>
            0 -1 7 3.3601475879549980e-03</internalNodes>
          <leafValues>
            -5.3867447376251221e-01 4.7675043344497681e-01</leafValues></_></weakClassifiers></_>
    <!-- stage 11 -->
    <_>
      <maxWeakCount>4</maxWeakCount>
      <stageThreshold>-1.8324402570724487e+00</stageThreshold>
      <weakClassifiers>
        <_>
          <internalNodes>
            0 -1 23 -1.5344646759331226e-02</internalNodes>
          <leafValues>
            1. -9.6078431606292725e-01</leafValues></_>
        <_>
          <internalNodes>
            0 -1 36 2.4350560270249844e-03</internalNodes>
          <leafValues>
            -8.4546363353729248e-01 4.4483608007431030e-01</leafValues></_>
        <_>
          <internalNodes>
            0 -1 42 9.7262521740049124e-04</internalNodes>
          <leafValues>
            -6.3279604911804199e-01 5.5628395080566406e-01</leafValues></_>
        <_>
          <internalNodes>
            0 -1 10 -2.8457131702452898e-03</internalNodes>
          <leafValues>
            6.0660374164581299e-01 -5.2644997835159302e-01</leafValues></_></weakClassifiers></_></stages>
  <features>
    <_>
      <rects>
        <_>
          0 0 4 20 -1.</_>
        <_>
          0 0 2 10 2.</_>
        <_>
          2 10 2 10 2.</_></rects>
      <tilted>0</tilted></_>
    <_>
      <rects>
        <_>
          0 3 15 16 -1.</_>
        <_>
          0 11 15 8 2.</_></rects>
      <tilted>0</tilted></_>
    <_>
      <rects>
        <_>
          0 7 10 16 -1.</_>
        <_>
          0 7 5 8 2.</_>
        <_>
          5 15 5 8 2.</_></rects>
      <tilted>0</tilted></_>
    <_>
      <rects>
        <_>
          0 9 19 15 -1.</_>
        <_>
          0 14 19 5 3.</_></rects>
      <tilted>0</tilted></_>
    <_>
      <rects>
        <_>
          0 11 4 9 -1.</_>
        <_>
          2 11 2 9 2.</_></rects>
      <tilted>0</tilted></_>
    <_>
      <rects>
        <_>
          0 12 3 1 -1.</_>
        <_>
          1 12 1 1 3.</_></rects>
      <tilted>0</tilted></_>
    <_>
      <rects>
        <_>
          0 21 3 1 -1.</_>
        <_>
          1 21 1 1 3.</_></rects>
      <tilted>0</tilted></_>
    <_>
      <rects>
        <_>
          1 9 7 2 -1.</_>
        <_>
          1 10 7 1 2.</_></rects>
      <tilted>0</tilted></_>
    <_>
      <rects>
        <_>
          1 14 20 8 -1.</_>
        <_>
          1 18 20 4 2.</_></rects>
      <tilted>0</tilted></_>
    <_>
      <rects>
        <_>
          1 20 6 2 -1.</_>
        <_>
          3 20 2 2 3.</_></rects>
      <tilted>0</tilted></_>
    <_>
      <rects>
        <_>
          2 11 4 3 -1.</_>
        <_>
          2 12 4 1 3.</_></rects>
      <tilted>0</tilted></_>
    <_>
      <rects>
        <_>
          3 1 11 12 -1.</_>
        <_>
          3 7 11 6 2.</_></rects>
      <tilted>0</tilted></_>
    <_>
      <rects>
        <_>
          3 4 8 15 -1.</_>
        <_>
          3 9 8 5 3.</_></rects>
      <tilted>0</tilted></_>
    <_>
      <rects>
        <_>
          3 18 14 6 -1.</_>
        <_>
          3 20 14 2 3.</_></rects>
      <tilted>0</tilted></_>
    <_>
      <rects>
        <_>
          4 2 3 1 -1.</_>
        <_>
          5 2 1 1 3.</_></rects>
      <tilted>0</tilted></_>
    <_>
      <rects>
        <_>
          4 6 6 6 -1.</_>
        <_>
          4 9 6 3 2.</_></rects>
      <tilted>0</tilted></_>
    <_>
      <rects>
        <_>
          4 8 6 2 -1.</_>
        <_>
          4 9 6 1 2.</_></rects>
      <tilted>0</tilted></_>
    <_>
      <rects>
        <_>
          4 9 11 15 -1.</_>
        <_>
          4 14 11 5 3.</_></rects>
      <tilted>0</tilted></_>
    <_>
      <rects>
        <_>
          5 1 15 20 -1.</_>
        <_>
          5 11 15 10 2.</_></rects>
      <tilted>0</tilted></_>
    <_>
      <rects>
        <_>
          5 8 6 15 -1.</_>
        <_>
          5 13 6 5 3.</_></rects>
      <tilted>0</tilted></_>
    <_>
      <rects>
        <_>
          5 9 14 10 -1.</_>
        <_>
          5 14 14 5 2.</_></rects>
      <tilted>0</tilted></_>
    <_>
      <rects>
        <_>
          5 14 4 9 -1.</_>
        <_>
          5 17 4 3 3.</_></rects>
      <tilted>0</tilted></_>
    <_>
      <rects>
        <_>
          6 2 4 18 -1.</_>
        <_>
          6 8 4 6 3.</_></rects>
      <tilted>0</tilted></_>
    <_>
      <rects>
        <_>
          6 10 6 6 -1.</_>
        <_>
          6 10 3 3 2.</_>
        <_>
          9 13 3 3 2.</_></rects>
      <tilted>0</tilted></_>
    <_>
      <rects>
        <_>
          7 6 15 1 -1.</_>
        <_>
          12 6 5 1 3.</_></rects>
      <tilted>0</tilted></_>
    <_>
      <rects>
        <_>
          7 10 9 8 -1.</_>
        <_>
          7 14 9 4 2.</_></rects>
      <tilted>0</tilted></_>
    <_>
      <rects>
        <_>
          7 19 3 5 -1.</_>
        <_>
          8 19 1 5 3.</_></rects>
      <tilted>0</tilted></_>
    <_>
      <rects>
        <_>
          7 23 3 1 -1.</_>
        <_>
          8 23 1 1 3.</_></rects>
      <tilted>0</tilted></_>
    <_>
      <rects>
        <_>
          8 1 15 6 -1.</_>
        <_>
          8 3 15 2 3.</_></rects>
      <tilted>0</tilted></_>
    <_>
      <rects>
        <_>
          8 5 3 16 -1.</_>
        <_>
          8 13 3 8 2.</_></rects>
      <tilted>0</tilted></_>
    <_>
      <rects>
        <_>
          8 8 14 6 -1.</_>
        <_>
          8 10 14 2 3.</_></rects>
      <tilted>0</tilted></_>
    <_>
      <rects>
        <_>
          8 15 3 6 -1.</_>
        <_>
          9 15 1 6 3.</_></rects>
      <tilted>0</tilted></_>
    <_>
      <rects>
        <_>
          8 16 3 4 -1.</_>
        <_>
          8 18 3 2 2.</_></rects>
      <tilted>0</tilted></_>
    <_>
      <rects>
        <_>
          9 5 2 12 -1.</_>
        <_>
          9 9 2 4 3.</_></rects>
      <tilted>0</tilted></_>
    <_>
      <rects>
        <_>
          9 11 4 8 -1.</_>
        <_>
          9 11 2 4 2.</_>
        <_>
          11 15 2 4 2.</_></rects>
      <tilted>0</tilted></_>
    <_>
      <rects>
        <_>
          10 4 9 3 -1.</_>
        <_>
          13 4 3 3 3.</_></rects>
      <tilted>0</tilted></_>
    <_>
      <rects>
        <_>
          12 10 1 12 -1.</_>
        <_>
          12 16 1 6 2.</_></rects>
      <tilted>0</tilted></_>
    <_>
      <rects>
        <_>
          12 15 2 4 -1.</_>
        <_>
          13 15 1 4 2.</_></rects>
      <tilted>0</tilted></_>
    <_>
      <rects>
        <_>
          14 2 6 9 -1.</_>
        <_>
          14 5 6 3 3.</_></rects>
      <tilted>0</tilted></_>
    <_>
      <rects>
        <_>
          14 3 10 12 -1.</_>
        <_>
          14 3 5 6 2.</_>
        <_>
          19 9 5 6 2.</_></rects>
      <tilted>0</tilted></_>
    <_>
      <rects>
        <_>
          14 5 1 18 -1.</_>
        <_>
          14 11 1 6 3.</_></rects>
      <tilted>0</tilted></_>
    <_>
      <rects>
        <_>
          15 12 4 9 -1.</_>
        <_>
          15 15 4 3 3.</_></rects>
      <tilted>0</tilted></_>
    <_>
      <rects>
        <_>
          15 19 2 5 -1.</_>
        <_>
          16 19 1 5 2.</_></rects>
      <tilted>0</tilted></_>
    <_>
      <rects>
        <_>
          16 5 3 18 -1.</_>
        <_>
          16 11 3 6 3.</_></rects>
      <tilted>0</tilted></_>
    <_>
      <rects>
        <_>
          17 10 3 10 -1.</_>
        <_>
          17 15 3 5 2.</_></rects>
      <tilted>0</tilted></_>
    <_>
      <rects>
        <_>
          18 6 6 10 -1.</_>
        <_>
          18 6 3 5 2.</_>
        <_>
          21 11 3 5 2.</_></rects>
      <tilted>0</tilted></_>
    <_>
      <rects>
        <_>
          18 9 6 4 -1.</_>
        <_>
          18 9 3 2 2.</_>
        <_>
          21 11 3 2 2.</_></rects>
      <tilted>0</tilted></_>
    <_>
      <rects>
        <_>
          18 22 6 1 -1.</_>
        <_>
          20 22 2 1 3.</_></rects>
      <tilted>0</tilted></_>
    <_>
      <rects>
        <_>
          20 3 2 12 -1.</_>
        <_>
          20 3 1 6 2.</_>
        <_>
          21 9 1 6 2.</_></rects>
      <tilted>0</tilted></_>
    <_>
      <rects>
        <_>
          20 16 4 2 -1.</_>
        <_>
          22 16 2 2 2.</_></rects>
      <tilted>0</tilted></_>
    <_>
      <rects>
        <_>
          22 0 2 2 -1.</_>
        <_>
          22 1 2 1 2.</_></rects>
      <tilted>0</tilted></_>
    <_>
      <rects>
        <_>
          22 1 2 8 -1.</_>
        <_>
          22 5 2 4 2.</_></rects>
      <tilted>0</tilted></_></features></cascade>
</opencv_storage>
