<?xml version="1.0"?>
<opencv_storage>
<cascade>
  <stageType>BOOST</stageType>
  <featureType>HAAR</featureType>
  <height>24</height>
  <width>24</width>
  <stageParams>
    <boostType>GAB</boostType>
    <minHitRate>9.9500000476837158e-01</minHitRate>
    <maxFalseAlarm>5.0000000000000000e-01</maxFalseAlarm>
    <weightTrimRate>9.4999998807907104e-01</weightTrimRate>
    <maxDepth>1</maxDepth>
    <maxWeakCount>100</maxWeakCount></stageParams>
  <featureParams>
    <maxCatCount>0</maxCatCount>
    <featSize>1</featSize>
    <mode>BASIC</mode></featureParams>
  <stageNum>20</stageNum>
  <stages>
    <!-- stage 0 -->
    <_>
      <maxWeakCount>6</maxWeakCount>
      <stageThreshold>-1.8806767463684082e+00</stageThreshold>
      <weakClassifiers>
        <_>
          <internalNodes>
            0 -1 124 3.7402957677841187e-02</internalNodes>
          <leafValues>
            -8.9012873172760010e-01 1.5744680166244507e-01</leafValues></_>
        <_>
          <internalNodes>
            0 -1 172 6.7432466894388199e-03</internalNodes>
          <leafValues>
            -7.4897885322570801e-01 1.0251072794198990e-01</leafValues></_>
        <_>
          <internalNodes>
            0 -1 1 1.3139924407005310e-01</internalNodes>
          <leafValues>
            -3.3281520009040833e-01 7.9217058420181274e-01</leafValues></_>
        <_>
          <internalNodes>
            0 -1 17 -1.7013520002365112e-02</internalNodes>
          <leafValues>
            6.6507607698440552e-01 -3.5135215520858765e-01</leafValues></_>
        <_>
          <internalNodes>
            0 -1 68 6.0404487885534763e-04</internalNodes>
          <leafValues>
            2.7531209588050842e-01 -9.1154223680496216e-01</leafValues></_>
        <_>
          <internalNodes>
            0 -1 92 5.3375831339508295e-04</internalNodes>
          <leafValues>
            2.9260417819023132e-01 -8.8028931617736816e-01</leafValues></_></weakClassifiers></_>
    <!-- stage 1 -->
    <_>
      <maxWeakCount>6</maxWeakCount>
      <stageThreshold>-1.7188234329223633e+00</stageThreshold>
      <weakClassifiers>
        <_>
          <internalNodes>
            0 -1 50 -7.8777812421321869e-02</internalNodes>
          <leafValues>
            -7.2847679257392883e-02 -8.9071035385131836e-01</leafValues></_>
        <_>
          <internalNodes>
            0 -1 190 7.8898202627897263e-03</internalNodes>
          <leafValues>
            -7.0643329620361328e-01 2.5097292661666870e-01</leafValues></_>
        <_>
          <internalNodes>
            0 -1 147 -1.5082735568284988e-02</internalNodes>
          <leafValues>
            5.1754802465438843e-01 -4.7061550617218018e-01</leafValues></_>
        <_>
          <internalNodes>
            0 -1 142 -4.0270589292049408e-02</internalNodes>
          <leafValues>
            5.6387305259704590e-01 -3.5366663336753845e-01</leafValues></_>
        <_>
          <internalNodes>
            0 -1 99 8.8535947725176811e-04</internalNodes>
          <leafValues>
            2.9200375080108643e-01 -7.9833960533142090e-01</leafValues></_>
        <_>
          <internalNodes>
            0 -1 90 4.3876320123672485e-02</internalNodes>
          <leafValues>
            -2.7432698011398315e-01 7.2531831264495850e-01</leafValues></_></weakClassifiers></_>
    <!-- stage 2 -->
    <_>
      <maxWeakCount>8</maxWeakCount>
      <stageThreshold>-1.5107787847518921e+00</stageThreshold>
      <weakClassifiers>
        <_>
          <internalNodes>
            0 -1 124 5.9458673000335693e-02</internalNodes>
          <leafValues>
            -8.3179140090942383e-01 -5.2132699638605118e-02</leafValues></_>
        <_>
          <internalNodes>
            0 -1 7 -2.2665180265903473e-02</internalNodes>
          <leafValues>
            4.0133854746818542e-01 -4.8778566718101501e-01</leafValues></_>
        <_>
          <internalNodes>
            0 -1 105 -9.9032092839479446e-03</internalNodes>
          <leafValues>
            5.0184595584869385e-01 -3.7877234816551208e-01</leafValues></_>
        <_>
          <internalNodes>
            0 -1 33 -5.9272581711411476e-04</internalNodes>
          <leafValues>
            -6.5784728527069092e-01 2.4036657810211182e-01</leafValues></_>
        <_>
          <internalNodes>
            0 -1 19 -1.0387031361460686e-03</internalNodes>
          <leafValues>
            -7.9466730356216431e-01 2.0058523118495941e-01</leafValues></_>
        <_>
          <internalNodes>
            0 -1 12 -5.2262023091316223e-03</internalNodes>
          <leafValues>
            7.1045440435409546e-01 -2.5291347503662109e-01</leafValues></_>
        <_>
          <internalNodes>
            0 -1 125 -1.6590915620326996e-02</internalNodes>
          <leafValues>
            4.1922920942306519e-01 -4.2318063974380493e-01</leafValues></_>
        <_>
          <internalNodes>
            0 -1 120 -1.4918349683284760e-02</internalNodes>
          <leafValues>
            5.0490307807922363e-01 -3.5694578289985657e-01</leafValues></_></weakClassifiers></_>
    <!-- stage 3 -->
    <_>
      <maxWeakCount>7</maxWeakCount>
      <stageThreshold>-1.4134007692337036e+00</stageThreshold>
      <weakClassifiers>
        <_>
          <internalNodes>
            0 -1 98 1.5159302391111851e-02</internalNodes>
          <leafValues>
            -7.8432893753051758e-01 9.9099099636077881e-02</leafValues></_>
        <_>
          <internalNodes>
            0 -1 145 -5.3227494936436415e-04</internalNodes>
          <leafValues>
            -8.1397056579589844e-01 -2.2156944032758474e-03</leafValues></_>
        <_>
          <internalNodes>
            0 -1 67 -1.1803263623733073e-04</internalNodes>
          <leafValues>
            -6.5155684947967529e-01 1.7940296232700348e-01</leafValues></_>
        <_>
          <internalNodes>
            0 -1 144 -5.2747176960110664e-03</internalNodes>
          <leafValues>
            5.1269155740737915e-01 -2.7579519152641296e-01</leafValues></_>
        <_>
          <internalNodes>
            0 -1 169 -1.9465621560811996e-02</internalNodes>
          <leafValues>
            5.1442843675613403e-01 -2.9594758152961731e-01</leafValues></_>
        <_>
          <internalNodes>
            0 -1 129 -2.7364719426259398e-04</internalNodes>
          <leafValues>
            -8.9868497848510742e-01 1.7060093581676483e-01</leafValues></_>
        <_>
          <internalNodes>
            0 -1 16 -2.2069851402193308e-03</internalNodes>
          <leafValues>
            4.0663763880729675e-01 -3.4795209765434265e-01</leafValues></_></weakClassifiers></_>
    <!-- stage 4 -->
    <_>
      <maxWeakCount>9</maxWeakCount>
      <stageThreshold>-1.9790852069854736e+00</stageThreshold>
      <weakClassifiers>
        <_>
          <internalNodes>
            0 -1 57 6.4917787909507751e-02</internalNodes>
          <leafValues>
            -7.9208689928054810e-01 1.8918919563293457e-01</leafValues></_>
        <_>
          <internalNodes>
            0 -1 173 6.6574872471392155e-03</internalNodes>
          <leafValues>
            -7.1733951568603516e-01 9.5958046615123749e-02</leafValues></_>
        <_>
          <internalNodes>
            0 -1 195 -7.5915828347206116e-03</internalNodes>
          <leafValues>
            4.7650811076164246e-01 -2.9007649421691895e-01</leafValues></_>
        <_>
          <internalNodes>
            0 -1 163 -4.8335813335143030e-04</internalNodes>
          <leafValues>
            -6.7713284492492676e-01 2.1473181247711182e-01</leafValues></_>
        <_>
          <internalNodes>
            0 -1 163 3.7952815182507038e-04</internalNodes>
          <leafValues>
            2.8144940733909607e-01 -5.6735318899154663e-01</leafValues></_>
        <_>
          <internalNodes>
            0 -1 77 -3.9572119712829590e-03</internalNodes>
          <leafValues>
            5.0680649280548096e-01 -2.9028674960136414e-01</leafValues></_>
        <_>
          <internalNodes>
            0 -1 184 -8.2594482228159904e-04</internalNodes>
          <leafValues>
            -7.3816466331481934e-01 2.0046842098236084e-01</leafValues></_>
        <_>
          <internalNodes>
            0 -1 158 -1.6505088657140732e-02</internalNodes>
          <leafValues>
            3.7931758165359497e-01 -3.2709747552871704e-01</leafValues></_>
        <_>
          <internalNodes>
            0 -1 10 2.5421548634767532e-02</internalNodes>
          <leafValues>
            -2.0713840425014496e-01 6.2715268135070801e-01</leafValues></_></weakClassifiers></_>
    <!-- stage 5 -->
    <_>
      <maxWeakCount>10</maxWeakCount>
      <stageThreshold>-1.7011650800704956e+00</stageThreshold>
      <weakClassifiers>
        <_>
          <internalNodes>
            0 -1 179 -2.5460934266448021e-03</internalNodes>
          <leafValues>
            -1.6431924700737000e-01 -8.1297385692596436e-01</leafValues></_>
        <_>
          <internalNodes>
            0 -1 153 3.5548489540815353e-03</internalNodes>
          <leafValues>
            -5.1102626323699951e-01 1.6192765533924103e-01</leafValues></_>
        <_>
          <internalNodes>
            0 -1 65 -5.2773365750908852e-03</internalNodes>
          <leafValues>
            4.5534169673919678e-01 -2.8652533888816833e-01</leafValues></_>
        <_>
          <internalNodes>
            0 -1 132 3.4800777211785316e-04</internalNodes>
          <leafValues>
            1.4883428812026978e-01 -9.3899893760681152e-01</leafValues></_>
        <_>
          <internalNodes>
            0 -1 39 -2.0763294305652380e-03</internalNodes>
          <leafValues>
            4.4147369265556335e-01 -2.9623684287071228e-01</leafValues></_>
        <_>
          <internalNodes>
            0 -1 201 -2.9806173406541348e-03</internalNodes>
          <leafValues>
            5.8204132318496704e-01 -2.2977447509765625e-01</leafValues></_>
        <_>
          <internalNodes>
            0 -1 175 -4.3982779607176781e-04</internalNodes>
          <leafValues>
            -7.6629310846328735e-01 1.7064277827739716e-01</leafValues></_>
        <_>
          <internalNodes>
            0 -1 217 -2.4780714884400368e-03</internalNodes>
          <leafValues>
            -6.8355739116668701e-01 1.9074364006519318e-01</leafValues></_>
        <_>
          <internalNodes>
            0 -1 52 -8.7430467829108238e-05</internalNodes>
          <leafValues>
            3.5153043270111084e-01 -3.4481653571128845e-01</leafValues></_>
        <_>
          <internalNodes>
            0 -1 64 -1.3082058727741241e-01</internalNodes>
          <leafValues>
            6.3866358995437622e-01 -2.2503225505352020e-01</leafValues></_></weakClassifiers></_>
    <!-- stage 6 -->
    <_>
      <maxWeakCount>10</maxWeakCount>
      <stageThreshold>-2.0281667709350586e+00</stageThreshold>
      <weakClassifiers>
        <_>
          <internalNodes>
            0 -1 4 4.9259670078754425e-02</internalNodes>
          <leafValues>
            -8.0015861988067627e-01 6.4748197793960571e-02</leafValues></_>
        <_>
          <internalNodes>
            0 -1 159 -2.1611494943499565e-02</internalNodes>
          <leafValues>
            4.1550016403198242e-01 -4.7941541671752930e-01</leafValues></_>
        <_>
          <internalNodes>
            0 -1 182 3.1118423066800460e-05</internalNodes>
          <leafValues>
            -3.8776642084121704e-01 3.7550091743469238e-01</leafValues></_>
        <_>
          <internalNodes>
            0 -1 130 -6.3924130517989397e-04</internalNodes>
          <leafValues>
            -8.3771270513534546e-01 1.4124532043933868e-01</leafValues></_>
        <_>
          <internalNodes>
            0 -1 183 2.5574634491931647e-05</internalNodes>
          <leafValues>
            -3.6449414491653442e-01 3.6502376198768616e-01</leafValues></_>
        <_>
          <internalNodes>
            0 -1 21 -8.3187464624643326e-03</internalNodes>
          <leafValues>
            3.4590706229209900e-01 -4.0041729807853699e-01</leafValues></_>
        <_>
          <internalNodes>
            0 -1 108 -2.0028624683618546e-02</internalNodes>
          <leafValues>
            6.7586261034011841e-01 -2.2095669806003571e-01</leafValues></_>
        <_>
          <internalNodes>
            0 -1 216 -1.5272413147613406e-03</internalNodes>
          <leafValues>
            -8.1279444694519043e-01 2.3044556379318237e-01</leafValues></_>
        <_>
          <internalNodes>
            0 -1 123 -3.8389023393392563e-03</internalNodes>
          <leafValues>
            4.6215376257896423e-01 -3.2381880283355713e-01</leafValues></_>
        <_>
          <internalNodes>
            0 -1 13 -8.3234277553856373e-04</internalNodes>
          <leafValues>
            5.8175754547119141e-01 -1.8609756231307983e-01</leafValues></_></weakClassifiers></_>
    <!-- stage 7 -->
    <_>
      <maxWeakCount>7</maxWeakCount>
      <stageThreshold>-1.4273597002029419e+00</stageThreshold>
      <weakClassifiers>
        <_>
          <internalNodes>
            0 -1 86 -1.5318560600280762e-01</internalNodes>
          <leafValues>
            6.8888890743255615e-01 -7.6088559627532959e-01</leafValues></_>
        <_>
          <internalNodes>
            0 -1 176 3.0239933403208852e-04</internalNodes>
          <leafValues>
            -1.4147743582725525e-02 -8.8386303186416626e-01</leafValues></_>
        <_>
          <internalNodes>
            0 -1 94 -1.7556831240653992e-02</internalNodes>
          <leafValues>
            7.4576264619827271e-01 -2.3465211689472198e-01</leafValues></_>
        <_>
          <internalNodes>
            0 -1 110 3.8128177402541041e-04</internalNodes>
          <leafValues>
            1.7903158068656921e-01 -7.9119169712066650e-01</leafValues></_>
        <_>
          <internalNodes>
            0 -1 53 -1.7507921904325485e-02</internalNodes>
          <leafValues>
            4.5293751358985901e-01 -3.0693316459655762e-01</leafValues></_>
        <_>
          <internalNodes>
            0 -1 110 -4.0292390622198582e-04</internalNodes>
          <leafValues>
            -7.3669493198394775e-01 2.0575262606143951e-01</leafValues></_>
        <_>
          <internalNodes>
            0 -1 41 -7.5609697960317135e-03</internalNodes>
          <leafValues>
            5.4129230976104736e-01 -2.8517267107963562e-01</leafValues></_></weakClassifiers></_>
    <!-- stage 8 -->
    <_>
      <maxWeakCount>12</maxWeakCount>
      <stageThreshold>-1.5505578517913818e+00</stageThreshold>
      <weakClassifiers>
        <_>
          <internalNodes>
            0 -1 140 1.6621932387351990e-02</internalNodes>
          <leafValues>
            -8.0724877119064331e-01 -1.0752688348293304e-01</leafValues></_>
        <_>
          <internalNodes>
            0 -1 160 4.3396428227424622e-03</internalNodes>
          <leafValues>
            -6.1978775262832642e-01 6.8771556019783020e-02</leafValues></_>
        <_>
          <internalNodes>
            0 -1 206 -4.8520654672756791e-04</internalNodes>
          <leafValues>
            -7.5765734910964966e-01 1.0871542990207672e-01</leafValues></_>
        <_>
          <internalNodes>
            0 -1 207 4.5717385364696383e-04</internalNodes>
          <leafValues>
            1.4790199697017670e-01 -7.1081596612930298e-01</leafValues></_>
        <_>
          <internalNodes>
            0 -1 91 -1.2083455920219421e-02</internalNodes>
          <leafValues>
            5.1558399200439453e-01 -2.5007230043411255e-01</leafValues></_>
        <_>
          <internalNodes>
            0 -1 47 -1.7171900719404221e-02</internalNodes>
          <leafValues>
            2.4644170701503754e-01 -4.0140122175216675e-01</leafValues></_>
        <_>
          <internalNodes>
            0 -1 116 -7.5258179567754269e-03</internalNodes>
          <leafValues>
            4.3705421686172485e-01 -2.5590759515762329e-01</leafValues></_>
        <_>
          <internalNodes>
            0 -1 205 1.2365159636829048e-04</internalNodes>
          <leafValues>
            -3.1789240241050720e-01 3.3740958571434021e-01</leafValues></_>
        <_>
          <internalNodes>
            0 -1 181 -9.9113052710890770e-03</internalNodes>
          <leafValues>
            4.8064634203910828e-01 -2.4670663475990295e-01</leafValues></_>
        <_>
          <internalNodes>
            0 -1 187 1.9348757341504097e-02</internalNodes>
          <leafValues>
            -1.8506589531898499e-01 6.1578613519668579e-01</leafValues></_>
        <_>
          <internalNodes>
            0 -1 180 6.4602652564644814e-03</internalNodes>
          <leafValues>
            -2.1220864355564117e-01 5.1848936080932617e-01</leafValues></_>
        <_>
          <internalNodes>
            0 -1 79 -2.1593398414552212e-03</internalNodes>
          <leafValues>
            3.1936451792716980e-01 -3.4747034311294556e-01</leafValues></_></weakClassifiers></_>
    <!-- stage 9 -->
    <_>
      <maxWeakCount>8</maxWeakCount>
      <stageThreshold>-1.4386465549468994e+00</stageThreshold>
      <weakClassifiers>
        <_>
          <internalNodes>
            0 -1 5 8.7364241480827332e-02</internalNodes>
          <leafValues>
            -7.7897161245346069e-01 1.5463916957378387e-01</leafValues></_>
        <_>
          <internalNodes>
            0 -1 198 -2.1590865799225867e-04</internalNodes>
          <leafValues>
            -7.9399245977401733e-01 -5.6156795471906662e-02</leafValues></_>
        <_>
          <internalNodes>
            0 -1 109 -1.1758755892515182e-02</internalNodes>
          <leafValues>
            3.8819894194602966e-01 -2.7638304233551025e-01</leafValues></_>
        <_>
          <internalNodes>
            0 -1 66 2.0301692711655051e-04</internalNodes>
          <leafValues>
            1.4028675854206085e-01 -7.7870231866836548e-01</leafValues></_>
        <_>
          <internalNodes>
            0 -1 107 -3.3092556986957788e-04</internalNodes>
          <leafValues>
            3.5507753491401672e-01 -3.1260201334953308e-01</leafValues></_>
        <_>
          <internalNodes>
            0 -1 15 -2.5250492617487907e-03</internalNodes>
          <leafValues>
            -8.2252293825149536e-01 1.5432065725326538e-01</leafValues></_>
        <_>
          <internalNodes>
            0 -1 170 -4.0712003828957677e-04</internalNodes>
          <leafValues>
            2.3572093248367310e-01 -4.4667685031890869e-01</leafValues></_>
        <_>
          <internalNodes>
            0 -1 198 1.1379073112038895e-04</internalNodes>
          <leafValues>
            1.9297413527965546e-01 -4.9661090970039368e-01</leafValues></_></weakClassifiers></_>
    <!-- stage 10 -->
    <_>
      <maxWeakCount>13</maxWeakCount>
      <stageThreshold>-1.5098617076873779e+00</stageThreshold>
      <weakClassifiers>
        <_>
          <internalNodes>
            0 -1 166 2.5778230279684067e-02</internalNodes>
          <leafValues>
            -7.7186310291290283e-01 1.7647059261798859e-01</leafValues></_>
        <_>
          <internalNodes>
            0 -1 97 -1.5770262689329684e-04</internalNodes>
          <leafValues>
            6.7553192377090454e-02 -5.1191639900207520e-01</leafValues></_>
        <_>
          <internalNodes>
            0 -1 178 1.7471131286583841e-04</internalNodes>
          <leafValues>
            1.5700091421604156e-01 -5.2899223566055298e-01</leafValues></_>
        <_>
          <internalNodes>
            0 -1 164 -2.8564054518938065e-03</internalNodes>
          <leafValues>
            -7.8238093852996826e-01 1.2481410801410675e-01</leafValues></_>
        <_>
          <internalNodes>
            0 -1 128 5.1985372556373477e-04</internalNodes>
          <leafValues>
            -3.3304539322853088e-01 2.7624058723449707e-01</leafValues></_>
        <_>
          <internalNodes>
            0 -1 83 2.0856823539361358e-04</internalNodes>
          <leafValues>
            1.5644612908363342e-01 -7.3003906011581421e-01</leafValues></_>
        <_>
          <internalNodes>
            0 -1 25 1.0070171207189560e-02</internalNodes>
          <leafValues>
            -2.0868019759654999e-01 5.2893698215484619e-01</leafValues></_>
        <_>
          <internalNodes>
            0 -1 26 2.9104296118021011e-02</internalNodes>
          <leafValues>
            1.4622500538825989e-01 -8.3282035589218140e-01</leafValues></_>
        <_>
          <internalNodes>
            0 -1 152 8.9634107425808907e-03</internalNodes>
          <leafValues>
            -4.6193656325340271e-01 1.9466747343540192e-01</leafValues></_>
        <_>
          <internalNodes>
            0 -1 122 -2.4048213381320238e-03</internalNodes>
          <leafValues>
            4.3381160497665405e-01 -2.2519367933273315e-01</leafValues></_>
        <_>
          <internalNodes>
            0 -1 95 -1.6029443591833115e-02</internalNodes>
          <leafValues>
            4.5584699511528015e-01 -2.3824048042297363e-01</leafValues></_>
        <_>
          <internalNodes>
            0 -1 103 -4.1832034476101398e-03</internalNodes>
          <leafValues>
            3.4740519523620605e-01 -2.8732490539550781e-01</leafValues></_>
        <_>
          <internalNodes>
            0 -1 102 1.3399805175140500e-03</internalNodes>
          <leafValues>
            -2.1551358699798584e-01 4.9584069848060608e-01</leafValues></_></weakClassifiers></_>
    <!-- stage 11 -->
    <_>
      <maxWeakCount>11</maxWeakCount>
      <stageThreshold>-1.6996425390243530e+00</stageThreshold>
      <weakClassifiers>
        <_>
          <internalNodes>
            0 -1 3 2.3392996191978455e-01</internalNodes>
          <leafValues>
            -8.1379884481430054e-01 -1.0659898817539215e-01</leafValues></_>
        <_>
          <internalNodes>
            0 -1 117 -3.6841332912445068e-02</internalNodes>
          <leafValues>
            4.2051076889038086e-01 -3.7133297324180603e-01</leafValues></_>
        <_>
          <internalNodes>
            0 -1 18 5.9650605544447899e-03</internalNodes>
          <leafValues>
            1.2447439879179001e-01 -6.5511721372604370e-01</leafValues></_>
        <_>
          <internalNodes>
            0 -1 84 -9.5825653988867998e-04</internalNodes>
          <leafValues>
            -9.6279913187026978e-01 7.1212373673915863e-02</leafValues></_>
        <_>
          <internalNodes>
            0 -1 43 -4.2981938458979130e-03</internalNodes>
          <leafValues>
            3.0024096369743347e-01 -3.1447941064834595e-01</leafValues></_>
        <_>
          <internalNodes>
            0 -1 155 -1.3026071246713400e-03</internalNodes>
          <leafValues>
            -8.1862550973892212e-01 1.1629483103752136e-01</leafValues></_>
        <_>
          <internalNodes>
            0 -1 138 -2.7727797627449036e-02</internalNodes>
          <leafValues>
            2.9160514473915100e-01 -3.1203612685203552e-01</leafValues></_>
        <_>
          <internalNodes>
            0 -1 58 -1.9976796582341194e-02</internalNodes>
          <leafValues>
            6.6725081205368042e-01 -1.2974166870117188e-01</leafValues></_>
        <_>
          <internalNodes>
            0 -1 31 1.5363519196398556e-04</internalNodes>
          <leafValues>
            -2.8028458356857300e-01 3.4322360157966614e-01</leafValues></_>
        <_>
          <internalNodes>
            0 -1 127 3.8252392550930381e-04</internalNodes>
          <leafValues>
            -2.5303843617439270e-01 3.4768262505531311e-01</leafValues></_>
        <_>
          <internalNodes>
            0 -1 44 1.1239489685976878e-04</internalNodes>
          <leafValues>
            1.5977975726127625e-01 -5.6758648157119751e-01</leafValues></_></weakClassifiers></_>
    <!-- stage 12 -->
    <_>
      <maxWeakCount>13</maxWeakCount>
      <stageThreshold>-1.6877075433731079e+00</stageThreshold>
      <weakClassifiers>
        <_>
          <internalNodes>
            0 -1 165 -1.5743205323815346e-02</internalNodes>
          <leafValues>
            -1.0389610379934311e-01 -7.8972715139389038e-01</leafValues></_>
        <_>
          <internalNodes>
            0 -1 63 -1.0264646261930466e-02</internalNodes>
          <leafValues>
            3.1034374237060547e-01 -4.0674453973770142e-01</leafValues></_>
        <_>
          <internalNodes>
            0 -1 209 -8.0850431695580482e-03</internalNodes>
          <leafValues>
            -7.0216411352157593e-01 1.0104455053806305e-01</leafValues></_>
        <_>
          <internalNodes>
            0 -1 27 1.7039742087945342e-03</internalNodes>
          <leafValues>
            1.3923387229442596e-01 -7.7550405263900757e-01</leafValues></_>
        <_>
          <internalNodes>
            0 -1 128 8.0157804768532515e-04</internalNodes>
          <leafValues>
            -3.2812908291816711e-01 2.7367302775382996e-01</leafValues></_>
        <_>
          <internalNodes>
            0 -1 168 1.0232982458546758e-03</internalNodes>
          <leafValues>
            -2.3804512619972229e-01 4.2408770322799683e-01</leafValues></_>
        <_>
          <internalNodes>
            0 -1 199 2.3582568246638402e-05</internalNodes>
          <leafValues>
            2.2689683735370636e-01 -4.1691350936889648e-01</leafValues></_>
        <_>
          <internalNodes>
            0 -1 210 6.6624232567846775e-04</internalNodes>
          <leafValues>
            8.6724370718002319e-02 -8.6807686090469360e-01</leafValues></_>
        <_>
          <internalNodes>
            0 -1 35 4.7271414659917355e-03</internalNodes>
          <leafValues>
            9.9481210112571716e-02 -7.6687645912170410e-01</leafValues></_>
        <_>
          <internalNodes>
            0 -1 191 -3.7896761205047369e-04</internalNodes>
          <leafValues>
            5.0927478075027466e-01 -2.1081992983818054e-01</leafValues></_>
        <_>
          <internalNodes>
            0 -1 213 1.3821372762322426e-02</internalNodes>
          <leafValues>
            9.6663147211074829e-02 -8.2989978790283203e-01</leafValues></_>
        <_>
          <internalNodes>
            0 -1 202 5.7761103380471468e-04</internalNodes>
          <leafValues>
            -4.6035474538803101e-01 1.9334436953067780e-01</leafValues></_>
        <_>
          <internalNodes>
            0 -1 192 -7.1162328822538257e-05</internalNodes>
          <leafValues>
            -3.3286932110786438e-01 2.2726780176162720e-01</leafValues></_></weakClassifiers></_>
    <!-- stage 13 -->
    <_>
      <maxWeakCount>15</maxWeakCount>
      <stageThreshold>-1.8571991920471191e+00</stageThreshold>
      <weakClassifiers>
        <_>
          <internalNodes>
            0 -1 76 -2.0559790730476379e-01</internalNodes>
          <leafValues>
            9.0909093618392944e-01 -7.4020320177078247e-01</leafValues></_>
        <_>
          <internalNodes>
            0 -1 49 8.3514666184782982e-03</internalNodes>
          <leafValues>
            -4.6485680341720581e-01 1.9014430046081543e-01</leafValues></_>
        <_>
          <internalNodes>
            0 -1 167 -3.0633038841187954e-03</internalNodes>
          <leafValues>
            2.8548839688301086e-01 -3.2128235697746277e-01</leafValues></_>
        <_>
          <internalNodes>
            0 -1 70 -8.6644489783793688e-05</internalNodes>
          <leafValues>
            -4.1851052641868591e-01 1.9833262264728546e-01</leafValues></_>
        <_>
          <internalNodes>
            0 -1 55 2.8076418675482273e-03</internalNodes>
          <leafValues>
            2.1313673257827759e-01 -4.8591244220733643e-01</leafValues></_>
        <_>
          <internalNodes>
            0 -1 136 4.9002226442098618e-03</internalNodes>
          <leafValues>
            -2.9502400755882263e-01 2.5957518815994263e-01</leafValues></_>
        <_>
          <internalNodes>
            0 -1 115 4.4055309263058007e-04</internalNodes>
          <leafValues>
            1.2968876957893372e-01 -7.1431374549865723e-01</leafValues></_>
        <_>
          <internalNodes>
            0 -1 22 -4.3478147126734257e-03</internalNodes>
          <leafValues>
            -6.8875831365585327e-01 1.0078222304582596e-01</leafValues></_>
        <_>
          <internalNodes>
            0 -1 126 -7.3496892582625151e-04</internalNodes>
          <leafValues>
            2.6574829220771790e-01 -3.0666655302047729e-01</leafValues></_>
        <_>
          <internalNodes>
            0 -1 150 4.3108193203806877e-03</internalNodes>
          <leafValues>
            -2.3689168691635132e-01 3.6160784959793091e-01</leafValues></_>
        <_>
          <internalNodes>
            0 -1 174 4.3731136247515678e-03</internalNodes>
          <leafValues>
            9.4505704939365387e-02 -8.4680879116058350e-01</leafValues></_>
        <_>
          <internalNodes>
            0 -1 215 1.6024976503103971e-03</internalNodes>
          <leafValues>
            5.4039951413869858e-02 -1.</leafValues></_>
        <_>
          <internalNodes>
            0 -1 24 1.9133172463625669e-03</internalNodes>
          <leafValues>
            -2.1449725329875946e-01 3.9542654156684875e-01</leafValues></_>
        <_>
          <internalNodes>
            0 -1 87 -8.7524304399266839e-04</internalNodes>
          <leafValues>
            3.6225605010986328e-01 -2.3894961178302765e-01</leafValues></_>
        <_>
          <internalNodes>
            0 -1 0 -1.1334356713632587e-05</internalNodes>
          <leafValues>
            -4.1774079203605652e-01 2.2454640269279480e-01</leafValues></_></weakClassifiers></_>
    <!-- stage 14 -->
    <_>
      <maxWeakCount>14</maxWeakCount>
      <stageThreshold>-1.6608153581619263e+00</stageThreshold>
      <weakClassifiers>
        <_>
          <internalNodes>
            0 -1 106 -1.0364192724227905e-01</internalNodes>
          <leafValues>
            9.0909093618392944e-01 -7.4020320177078247e-01</leafValues></_>
        <_>
          <internalNodes>
            0 -1 177 -8.2492548972368240e-03</internalNodes>
          <leafValues>
            2.5780260562896729e-01 -4.1868656873703003e-01</leafValues></_>
        <_>
          <internalNodes>
            0 -1 54 2.6845647953450680e-03</internalNodes>
          <leafValues>
            1.2527817487716675e-01 -7.1744972467422485e-01</leafValues></_>
        <_>
          <internalNodes>
            0 -1 20 6.3118617981672287e-03</internalNodes>
          <leafValues>
            1.0569195449352264e-01 -8.5338681936264038e-01</leafValues></_>
        <_>
          <internalNodes>
            0 -1 23 -1.1278236052021384e-03</internalNodes>
          <leafValues>
            1.8623232841491699e-01 -3.6909368634223938e-01</leafValues></_>
        <_>
          <internalNodes>
            0 -1 56 -3.0853452626615763e-03</internalNodes>
          <leafValues>
            3.4869515895843506e-01 -2.2447977960109711e-01</leafValues></_>
        <_>
          <internalNodes>
            0 -1 194 -1.0637319646775723e-03</internalNodes>
          <leafValues>
            4.0111029148101807e-01 -1.7853994667530060e-01</leafValues></_>
        <_>
          <internalNodes>
            0 -1 208 3.3805571729317307e-04</internalNodes>
          <leafValues>
            1.7213115096092224e-01 -4.7603374719619751e-01</leafValues></_>
        <_>
          <internalNodes>
            0 -1 171 3.5687103867530823e-02</internalNodes>
          <leafValues>
            -1.3072329759597778e-01 6.7763400077819824e-01</leafValues></_>
        <_>
          <internalNodes>
            0 -1 137 2.9516679933294654e-04</internalNodes>
          <leafValues>
            1.0648246854543686e-01 -8.9833527803421021e-01</leafValues></_>
        <_>
          <internalNodes>
            0 -1 1 -6.1543136835098267e-02</internalNodes>
          <leafValues>
            4.8474127054214478e-01 -1.9592779874801636e-01</leafValues></_>
        <_>
          <internalNodes>
            0 -1 131 6.9599365815520287e-04</internalNodes>
          <leafValues>
            -2.8477945923805237e-01 3.0391007661819458e-01</leafValues></_>
        <_>
          <internalNodes>
            0 -1 11 -6.9275905843824148e-04</internalNodes>
          <leafValues>
            -6.9203996658325195e-01 1.0573846101760864e-01</leafValues></_>
        <_>
          <internalNodes>
            0 -1 197 2.7802545810118318e-04</internalNodes>
          <leafValues>
            -2.8902983665466309e-01 2.6694595813751221e-01</leafValues></_></weakClassifiers></_>
    <!-- stage 15 -->
    <_>
      <maxWeakCount>16</maxWeakCount>
      <stageThreshold>-1.7500022649765015e+00</stageThreshold>
      <weakClassifiers>
        <_>
          <internalNodes>
            0 -1 141 1.3922668062150478e-02</internalNodes>
          <leafValues>
            -7.4489796161651611e-01 7.8571426868438721e-01</leafValues></_>
        <_>
          <internalNodes>
            0 -1 89 -3.7240892648696899e-02</internalNodes>
          <leafValues>
            5.0400912761688232e-01 -3.5662773251533508e-01</leafValues></_>
        <_>
          <internalNodes>
            0 -1 61 -7.0305261760950089e-03</internalNodes>
          <leafValues>
            3.8582697510719299e-01 -1.8974265456199646e-01</leafValues></_>
        <_>
          <internalNodes>
            0 -1 135 1.8665628158487380e-04</internalNodes>
          <leafValues>
            -2.3250992596149445e-01 3.3835715055465698e-01</leafValues></_>
        <_>
          <internalNodes>
            0 -1 104 -1.1458298191428185e-02</internalNodes>
          <leafValues>
            3.3557066321372986e-01 -2.1951358020305634e-01</leafValues></_>
        <_>
          <internalNodes>
            0 -1 96 -6.1274678446352482e-03</internalNodes>
          <leafValues>
            3.3438253402709961e-01 -2.3196345567703247e-01</leafValues></_>
        <_>
          <internalNodes>
            0 -1 151 -2.5074481527553871e-05</internalNodes>
          <leafValues>
            3.0251413583755493e-01 -2.8673800826072693e-01</leafValues></_>
        <_>
          <internalNodes>
            0 -1 30 4.2562885209918022e-04</internalNodes>
          <leafValues>
            1.3745346665382385e-01 -5.4265552759170532e-01</leafValues></_>
        <_>
          <internalNodes>
            0 -1 149 -8.5641583427786827e-04</internalNodes>
          <leafValues>
            3.6097857356071472e-01 -2.2674095630645752e-01</leafValues></_>
        <_>
          <internalNodes>
            0 -1 81 -2.6736322324723005e-03</internalNodes>
          <leafValues>
            3.1782218813896179e-01 -2.6005294919013977e-01</leafValues></_>
        <_>
          <internalNodes>
            0 -1 118 -1.4337036758661270e-02</internalNodes>
          <leafValues>
            -1. 6.9927312433719635e-02</leafValues></_>
        <_>
          <internalNodes>
            0 -1 62 -1.8527042120695114e-03</internalNodes>
          <leafValues>
            3.3222451806068420e-01 -2.2084653377532959e-01</leafValues></_>
        <_>
          <internalNodes>
            0 -1 133 8.7815918959677219e-04</internalNodes>
          <leafValues>
            1.2055008858442307e-01 -6.4731198549270630e-01</leafValues></_>
        <_>
          <internalNodes>
            0 -1 85 6.1645075678825378e-02</internalNodes>
          <leafValues>
            -2.0480103790760040e-01 4.5558467507362366e-01</leafValues></_>
        <_>
          <internalNodes>
            0 -1 156 8.6334841325879097e-03</internalNodes>
          <leafValues>
            -2.0230138301849365e-01 5.1546359062194824e-01</leafValues></_>
        <_>
          <internalNodes>
            0 -1 60 1.8096681684255600e-02</internalNodes>
          <leafValues>
            1.5688744187355042e-01 -5.1181662082672119e-01</leafValues></_></weakClassifiers></_>
    <!-- stage 16 -->
    <_>
      <maxWeakCount>14</maxWeakCount>
      <stageThreshold>-1.5139840841293335e+00</stageThreshold>
      <weakClassifiers>
        <_>
          <internalNodes>
            0 -1 36 3.3372235298156738e-01</internalNodes>
          <leafValues>
            -7.4146693944931030e-01 9.1304349899291992e-01</leafValues></_>
        <_>
          <internalNodes>
            0 -1 119 2.4855244904756546e-02</internalNodes>
          <leafValues>
            -4.3302989006042480e-01 3.1492340564727783e-01</leafValues></_>
        <_>
          <internalNodes>
            0 -1 34 -4.6667069196701050e-02</internalNodes>
          <leafValues>
            2.1374963223934174e-01 -3.6240071058273315e-01</leafValues></_>
        <_>
          <internalNodes>
            0 -1 157 -1.6330305486917496e-02</internalNodes>
          <leafValues>
            4.5396819710731506e-01 -2.0434966683387756e-01</leafValues></_>
        <_>
          <internalNodes>
            0 -1 45 -5.1217852160334587e-05</internalNodes>
          <leafValues>
            -3.8116085529327393e-01 1.9887678325176239e-01</leafValues></_>
        <_>
          <internalNodes>
            0 -1 78 4.7369132516905665e-04</internalNodes>
          <leafValues>
            -1.6552516818046570e-01 4.8820975422859192e-01</leafValues></_>
        <_>
          <internalNodes>
            0 -1 185 5.8822698891162872e-02</internalNodes>
          <leafValues>
            -1.3667288422584534e-01 6.4015394449234009e-01</leafValues></_>
        <_>
          <internalNodes>
            0 -1 69 9.8226685076951981e-03</internalNodes>
          <leafValues>
            1.5499740839004517e-01 -8.5851949453353882e-01</leafValues></_>
        <_>
          <internalNodes>
            0 -1 193 1.7768554389476776e-03</internalNodes>
          <leafValues>
            -4.7875002026557922e-01 1.4446435868740082e-01</leafValues></_>
        <_>
          <internalNodes>
            0 -1 71 5.9868423268198967e-03</internalNodes>
          <leafValues>
            -2.4403797090053558e-01 2.9625171422958374e-01</leafValues></_>
        <_>
          <internalNodes>
            0 -1 6 1.1868921108543873e-02</internalNodes>
          <leafValues>
            1.0978481173515320e-01 -6.9036746025085449e-01</leafValues></_>
        <_>
          <internalNodes>
            0 -1 48 2.1587754599750042e-03</internalNodes>
          <leafValues>
            -1.9200143218040466e-01 3.9600941538810730e-01</leafValues></_>
        <_>
          <internalNodes>
            0 -1 88 4.5042291283607483e-02</internalNodes>
          <leafValues>
            -1.5945975482463837e-01 5.1707172393798828e-01</leafValues></_>
        <_>
          <internalNodes>
            0 -1 29 -9.3979639932513237e-03</internalNodes>
          <leafValues>
            2.8364726901054382e-01 -2.9509320855140686e-01</leafValues></_></weakClassifiers></_>
    <!-- stage 17 -->
    <_>
      <maxWeakCount>14</maxWeakCount>
      <stageThreshold>-1.4816014766693115e+00</stageThreshold>
      <weakClassifiers>
        <_>
          <internalNodes>
            0 -1 101 -8.6179375648498535e-02</internalNodes>
          <leafValues>
            9.1666668653488159e-01 -7.4273258447647095e-01</leafValues></_>
        <_>
          <internalNodes>
            0 -1 148 -1.2393537908792496e-02</internalNodes>
          <leafValues>
            7.0263612270355225e-01 -3.0481997132301331e-01</leafValues></_>
        <_>
          <internalNodes>
            0 -1 214 4.2514712549746037e-03</internalNodes>
          <leafValues>
            1.5104930102825165e-01 -6.4564120769500732e-01</leafValues></_>
        <_>
          <internalNodes>
            0 -1 146 3.3740974031388760e-03</internalNodes>
          <leafValues>
            6.2175761908292770e-02 -1.</leafValues></_>
        <_>
          <internalNodes>
            0 -1 82 -1.9570533186197281e-02</internalNodes>
          <leafValues>
            5.9763002395629883e-01 -1.2149664014577866e-01</leafValues></_>
        <_>
          <internalNodes>
            0 -1 162 -1.0624443530105054e-04</internalNodes>
          <leafValues>
            -4.9467632174491882e-01 1.4834117889404297e-01</leafValues></_>
        <_>
          <internalNodes>
            0 -1 211 1.1013286188244820e-02</internalNodes>
          <leafValues>
            1.1493615806102753e-01 -6.7616450786590576e-01</leafValues></_>
        <_>
          <internalNodes>
            0 -1 139 -3.4138723276555538e-04</internalNodes>
          <leafValues>
            -6.3697385787963867e-01 1.1472319811582565e-01</leafValues></_>
        <_>
          <internalNodes>
            0 -1 51 -1.9169173901900649e-03</internalNodes>
          <leafValues>
            2.8510397672653198e-01 -2.5132468342781067e-01</leafValues></_>
        <_>
          <internalNodes>
            0 -1 14 -2.6119216345250607e-03</internalNodes>
          <leafValues>
            4.4839397072792053e-01 -1.8541273474693298e-01</leafValues></_>
        <_>
          <internalNodes>
            0 -1 134 5.0497066695243120e-04</internalNodes>
          <leafValues>
            -1.7044550180435181e-01 4.2602056264877319e-01</leafValues></_>
        <_>
          <internalNodes>
            0 -1 2 3.8100985693745315e-04</internalNodes>
          <leafValues>
            1.4063642919063568e-01 -5.2542811632156372e-01</leafValues></_>
        <_>
          <internalNodes>
            0 -1 9 1.4843200333416462e-03</internalNodes>
          <leafValues>
            1.1756856739521027e-01 -6.0488694906234741e-01</leafValues></_>
        <_>
          <internalNodes>
            0 -1 73 1.2134104035794735e-02</internalNodes>
          <leafValues>
            -2.3052954673767090e-01 3.3185932040214539e-01</leafValues></_></weakClassifiers></_>
    <!-- stage 18 -->
    <_>
      <maxWeakCount>15</maxWeakCount>
      <stageThreshold>-1.8625121116638184e+00</stageThreshold>
      <weakClassifiers>
        <_>
          <internalNodes>
            0 -1 112 -5.4148640483617783e-02</internalNodes>
          <leafValues>
            8.3999997377395630e-01 -7.4254542589187622e-01</leafValues></_>
        <_>
          <internalNodes>
            0 -1 100 3.8608200848102570e-02</internalNodes>
          <leafValues>
            -4.2422947287559509e-01 3.1780731678009033e-01</leafValues></_>
        <_>
          <internalNodes>
            0 -1 32 -6.1794306384399533e-04</internalNodes>
          <leafValues>
            -9.1181254386901855e-01 8.0889225006103516e-02</leafValues></_>
        <_>
          <internalNodes>
            0 -1 28 8.8396592764183879e-04</internalNodes>
          <leafValues>
            -2.4010324478149414e-01 2.9263153672218323e-01</leafValues></_>
        <_>
          <internalNodes>
            0 -1 75 5.7089985348284245e-03</internalNodes>
          <leafValues>
            -1.9079485535621643e-01 4.1415256261825562e-01</leafValues></_>
        <_>
          <internalNodes>
            0 -1 201 -2.9641897417604923e-03</internalNodes>
          <leafValues>
            4.0541887283325195e-01 -1.7534373700618744e-01</leafValues></_>
        <_>
          <internalNodes>
            0 -1 161 2.3284449707716703e-04</internalNodes>
          <leafValues>
            1.0978975147008896e-01 -6.9139081239700317e-01</leafValues></_>
        <_>
          <internalNodes>
            0 -1 194 -1.0021463967859745e-03</internalNodes>
          <leafValues>
            3.8529455661773682e-01 -1.8146048486232758e-01</leafValues></_>
        <_>
          <internalNodes>
            0 -1 203 7.8200706047937274e-04</internalNodes>
          <leafValues>
            1.0246060043573380e-01 -6.8236219882965088e-01</leafValues></_>
        <_>
          <internalNodes>
            0 -1 143 3.4844799665734172e-04</internalNodes>
          <leafValues>
            -2.0997028052806854e-01 3.6354607343673706e-01</leafValues></_>
        <_>
          <internalNodes>
            0 -1 121 3.9097815752029419e-03</internalNodes>
          <leafValues>
            -1.1659410595893860e-01 5.6468868255615234e-01</leafValues></_>
        <_>
          <internalNodes>
            0 -1 37 7.7830404043197632e-03</internalNodes>
          <leafValues>
            -2.4598500132560730e-01 3.9714756608009338e-01</leafValues></_>
        <_>
          <internalNodes>
            0 -1 72 3.1865129130892456e-04</internalNodes>
          <leafValues>
            1.4334416389465332e-01 -6.0857188701629639e-01</leafValues></_>
        <_>
          <internalNodes>
            0 -1 204 -2.9559922404587269e-03</internalNodes>
          <leafValues>
            5.7569783926010132e-01 -1.6272729635238647e-01</leafValues></_>
        <_>
          <internalNodes>
            0 -1 46 9.4984941184520721e-02</internalNodes>
          <leafValues>
            -1.8275825679302216e-01 4.3522745370864868e-01</leafValues></_></weakClassifiers></_>
    <!-- stage 19 -->
    <_>
      <maxWeakCount>18</maxWeakCount>
      <stageThreshold>-1.8010506629943848e+00</stageThreshold>
      <weakClassifiers>
        <_>
          <internalNodes>
            0 -1 74 -2.4569070339202881e-01</internalNodes>
          <leafValues>
            7.6923078298568726e-01 -7.4235808849334717e-01</leafValues></_>
        <_>
          <internalNodes>
            0 -1 114 -1.5743553638458252e-02</internalNodes>
          <leafValues>
            7.7044486999511719e-02 -5.2041023969650269e-01</leafValues></_>
        <_>
          <internalNodes>
            0 -1 111 -1.8269326537847519e-03</internalNodes>
          <leafValues>
            2.7204427123069763e-01 -2.9744073748588562e-01</leafValues></_>
        <_>
          <internalNodes>
            0 -1 40 -1.8860265612602234e-02</internalNodes>
          <leafValues>
            2.8118452429771423e-01 -2.3536139726638794e-01</leafValues></_>
        <_>
          <internalNodes>
            0 -1 189 -5.9356205165386200e-03</internalNodes>
          <leafValues>
            5.3725433349609375e-01 -1.0168982297182083e-01</leafValues></_>
        <_>
          <internalNodes>
            0 -1 8 8.9616384357213974e-03</internalNodes>
          <leafValues>
            8.6195349693298340e-02 -9.0024286508560181e-01</leafValues></_>
        <_>
          <internalNodes>
            0 -1 38 2.1010614000260830e-03</internalNodes>
          <leafValues>
            -1.8918919563293457e-01 3.8176062703132629e-01</leafValues></_>
        <_>
          <internalNodes>
            0 -1 212 6.2550394795835018e-04</internalNodes>
          <leafValues>
            1.3201177120208740e-01 -5.5931311845779419e-01</leafValues></_>
        <_>
          <internalNodes>
            0 -1 196 -1.5994194836821407e-04</internalNodes>
          <leafValues>
            2.4056267738342285e-01 -3.1442642211914063e-01</leafValues></_>
        <_>
          <internalNodes>
            0 -1 93 -1.3530364632606506e-01</internalNodes>
          <leafValues>
            6.3001972436904907e-01 -1.0111004859209061e-01</leafValues></_>
        <_>
          <internalNodes>
            0 -1 113 -4.5701311901211739e-03</internalNodes>
          <leafValues>
            3.8164269924163818e-01 -1.9803152978420258e-01</leafValues></_>
        <_>
          <internalNodes>
            0 -1 59 -7.3724826797842979e-03</internalNodes>
          <leafValues>
            4.9259299039840698e-01 -1.6635477542877197e-01</leafValues></_>
        <_>
          <internalNodes>
            0 -1 200 1.8763236701488495e-02</internalNodes>
          <leafValues>
            -1.0283713042736053e-01 6.6624295711517334e-01</leafValues></_>
        <_>
          <internalNodes>
            0 -1 188 1.9043523818254471e-02</internalNodes>
          <leafValues>
            1.1883252114057541e-01 -7.1901971101760864e-01</leafValues></_>
        <_>
          <internalNodes>
            0 -1 154 1.9009504467248917e-03</internalNodes>
          <leafValues>
            -2.0034492015838623e-01 3.8619971275329590e-01</leafValues></_>
        <_>
          <internalNodes>
            0 -1 42 -1.2577676214277744e-02</internalNodes>
          <leafValues>
            -3.1283804774284363e-01 2.3999440670013428e-01</leafValues></_>
        <_>
          <internalNodes>
            0 -1 80 -3.3790769521147013e-03</internalNodes>
          <leafValues>
            3.0641409754753113e-01 -2.4593485891819000e-01</leafValues></_>
        <_>
          <internalNodes>
            0 -1 186 5.4841949604451656e-03</internalNodes>
          <leafValues>
            9.0349495410919189e-02 -8.0927622318267822e-01</leafValues></_></weakClassifiers></_></stages>
  <features>
    <_>
      <rects>
        <_>
          0 0 10 1 -1.</_>
        <_>
          5 0 5 1 2.</_></rects>
      <tilted>0</tilted></_>
    <_>
      <rects>
        <_>
          0 1 24 9 -1.</_>
        <_>
          8 1 8 9 3.</_></rects>
      <tilted>0</tilted></_>
    <_>
      <rects>
        <_>
          0 2 4 2 -1.</_>
        <_>
          0 2 2 1 2.</_>
        <_>
          2 3 2 1 2.</_></rects>
      <tilted>0</tilted></_>
    <_>
      <rects>
        <_>
          0 2 24 19 -1.</_>
        <_>
          8 2 8 19 3.</_></rects>
      <tilted>0</tilted></_>
    <_>
      <rects>
        <_>
          0 3 14 3 -1.</_>
        <_>
          7 3 7 3 2.</_></rects>
      <tilted>0</tilted></_>
    <_>
      <rects>
        <_>
          0 3 24 2 -1.</_>
        <_>
          8 3 8 2 3.</_></rects>
      <tilted>0</tilted></_>
    <_>
      <rects>
        <_>
          0 5 24 1 -1.</_>
        <_>
          12 5 12 1 2.</_></rects>
      <tilted>0</tilted></_>
    <_>
      <rects>
        <_>
          0 6 6 14 -1.</_>
        <_>
          0 6 3 7 2.</_>
        <_>
          3 13 3 7 2.</_></rects>
      <tilted>0</tilted></_>
    <_>
      <rects>
        <_>
          0 7 2 6 -1.</_>
        <_>
          0 9 2 2 3.</_></rects>
      <tilted>0</tilted></_>
    <_>
      <rects>
        <_>
          0 8 1 4 -1.</_>
        <_>
          0 10 1 2 2.</_></rects>
      <tilted>0</tilted></_>
    <_>
      <rects>
        <_>
          0 8 6 9 -1.</_>
        <_>
          3 8 3 9 2.</_></rects>
      <tilted>0</tilted></_>
    <_>
      <rects>
        <_>
          0 9 1 2 -1.</_>
        <_>
          0 10 1 1 2.</_></rects>
      <tilted>0</tilted></_>
    <_>
      <rects>
        <_>
          0 11 4 3 -1.</_>
        <_>
          2 11 2 3 2.</_></rects>
      <tilted>0</tilted></_>
    <_>
      <rects>
        <_>
          0 12 3 1 -1.</_>
        <_>
          1 12 1 1 3.</_></rects>
      <tilted>0</tilted></_>
    <_>
      <rects>
        <_>
          0 12 6 1 -1.</_>
        <_>
          2 12 2 1 3.</_></rects>
      <tilted>0</tilted></_>
    <_>
      <rects>
        <_>
          0 13 1 6 -1.</_>
        <_>
          0 16 1 3 2.</_></rects>
      <tilted>0</tilted></_>
    <_>
      <rects>
        <_>
          0 13 6 4 -1.</_>
        <_>
          0 13 3 2 2.</_>
        <_>
          3 15 3 2 2.</_></rects>
      <tilted>0</tilted></_>
    <_>
      <rects>
        <_>
          0 13 6 10 -1.</_>
        <_>
          3 13 3 10 2.</_></rects>
      <tilted>0</tilted></_>
    <_>
      <rects>
        <_>
          0 14 1 10 -1.</_>
        <_>
          0 19 1 5 2.</_></rects>
      <tilted>0</tilted></_>
    <_>
      <rects>
        <_>
          0 15 1 4 -1.</_>
        <_>
          0 17 1 2 2.</_></rects>
      <tilted>0</tilted></_>
    <_>
      <rects>
        <_>
          0 15 1 9 -1.</_>
        <_>
          0 18 1 3 3.</_></rects>
      <tilted>0</tilted></_>
    <_>
      <rects>
        <_>
          0 15 9 7 -1.</_>
        <_>
          3 15 3 7 3.</_></rects>
      <tilted>0</tilted></_>
    <_>
      <rects>
        <_>
          0 16 1 8 -1.</_>
        <_>
          0 20 1 4 2.</_></rects>
      <tilted>0</tilted></_>
    <_>
      <rects>
        <_>
          0 16 4 8 -1.</_>
        <_>
          2 16 2 8 2.</_></rects>
      <tilted>0</tilted></_>
    <_>
      <rects>
        <_>
          0 16 10 2 -1.</_>
        <_>
          0 16 5 1 2.</_>
        <_>
          5 17 5 1 2.</_></rects>
      <tilted>0</tilted></_>
    <_>
      <rects>
        <_>
          0 17 10 3 -1.</_>
        <_>
          5 17 5 3 2.</_></rects>
      <tilted>0</tilted></_>
    <_>
      <rects>
        <_>
          0 18 18 6 -1.</_>
        <_>
          9 18 9 6 2.</_></rects>
      <tilted>0</tilted></_>
    <_>
      <rects>
        <_>
          0 19 1 4 -1.</_>
        <_>
          0 21 1 2 2.</_></rects>
      <tilted>0</tilted></_>
    <_>
      <rects>
        <_>
          0 19 3 4 -1.</_>
        <_>
          0 21 3 2 2.</_></rects>
      <tilted>0</tilted></_>
    <_>
      <rects>
        <_>
          0 20 18 4 -1.</_>
        <_>
          6 20 6 4 3.</_></rects>
      <tilted>0</tilted></_>
    <_>
      <rects>
        <_>
          0 21 2 3 -1.</_>
        <_>
          0 22 2 1 3.</_></rects>
      <tilted>0</tilted></_>
    <_>
      <rects>
        <_>
          0 22 4 2 -1.</_>
        <_>
          0 22 2 1 2.</_>
        <_>
          2 23 2 1 2.</_></rects>
      <tilted>0</tilted></_>
    <_>
      <rects>
        <_>
          0 23 3 1 -1.</_>
        <_>
          1 23 1 1 3.</_></rects>
      <tilted>0</tilted></_>
    <_>
      <rects>
        <_>
          1 0 12 2 -1.</_>
        <_>
          1 0 6 1 2.</_>
        <_>
          7 1 6 1 2.</_></rects>
      <tilted>0</tilted></_>
    <_>
      <rects>
        <_>
          1 0 8 22 -1.</_>
        <_>
          1 11 8 11 2.</_></rects>
      <tilted>0</tilted></_>
    <_>
      <rects>
        <_>
          1 2 2 6 -1.</_>
        <_>
          1 4 2 2 3.</_></rects>
      <tilted>0</tilted></_>
    <_>
      <rects>
        <_>
          1 8 10 15 -1.</_>
        <_>
          1 13 10 5 3.</_></rects>
      <tilted>0</tilted></_>
    <_>
      <rects>
        <_>
          1 9 19 3 -1.</_>
        <_>
          1 10 19 1 3.</_></rects>
      <tilted>0</tilted></_>
    <_>
      <rects>
        <_>
          1 11 3 4 -1.</_>
        <_>
          2 11 1 4 3.</_></rects>
      <tilted>0</tilted></_>
    <_>
      <rects>
        <_>
          1 12 8 2 -1.</_>
        <_>
          1 13 8 1 2.</_></rects>
      <tilted>0</tilted></_>
    <_>
      <rects>
        <_>
          1 13 21 6 -1.</_>
        <_>
          1 15 21 2 3.</_></rects>
      <tilted>0</tilted></_>
    <_>
      <rects>
        <_>
          1 15 11 3 -1.</_>
        <_>
          1 16 11 1 3.</_></rects>
      <tilted>0</tilted></_>
    <_>
      <rects>
        <_>
          1 17 16 6 -1.</_>
        <_>
          9 17 8 6 2.</_></rects>
      <tilted>0</tilted></_>
    <_>
      <rects>
        <_>
          1 18 9 4 -1.</_>
        <_>
          4 18 3 4 3.</_></rects>
      <tilted>0</tilted></_>
    <_>
      <rects>
        <_>
          2 0 3 1 -1.</_>
        <_>
          3 0 1 1 3.</_></rects>
      <tilted>0</tilted></_>
    <_>
      <rects>
        <_>
          2 0 21 1 -1.</_>
        <_>
          9 0 7 1 3.</_></rects>
      <tilted>0</tilted></_>
    <_>
      <rects>
        <_>
          2 1 21 7 -1.</_>
        <_>
          9 1 7 7 3.</_></rects>
      <tilted>0</tilted></_>
    <_>
      <rects>
        <_>
          2 8 7 10 -1.</_>
        <_>
          2 13 7 5 2.</_></rects>
      <tilted>0</tilted></_>
    <_>
      <rects>
        <_>
          2 9 2 5 -1.</_>
        <_>
          3 9 1 5 2.</_></rects>
      <tilted>0</tilted></_>
    <_>
      <rects>
        <_>
          2 11 16 4 -1.</_>
        <_>
          2 11 8 2 2.</_>
        <_>
          10 13 8 2 2.</_></rects>
      <tilted>0</tilted></_>
    <_>
      <rects>
        <_>
          2 12 15 10 -1.</_>
        <_>
          2 17 15 5 2.</_></rects>
      <tilted>0</tilted></_>
    <_>
      <rects>
        <_>
          2 13 2 4 -1.</_>
        <_>
          2 15 2 2 2.</_></rects>
      <tilted>0</tilted></_>
    <_>
      <rects>
        <_>
          2 15 2 1 -1.</_>
        <_>
          3 15 1 1 2.</_></rects>
      <tilted>0</tilted></_>
    <_>
      <rects>
        <_>
          2 17 10 6 -1.</_>
        <_>
          2 19 10 2 3.</_></rects>
      <tilted>0</tilted></_>
    <_>
      <rects>
        <_>
          3 0 9 1 -1.</_>
        <_>
          6 0 3 1 3.</_></rects>
      <tilted>0</tilted></_>
    <_>
      <rects>
        <_>
          3 0 14 1 -1.</_>
        <_>
          10 0 7 1 2.</_></rects>
      <tilted>0</tilted></_>
    <_>
      <rects>
        <_>
          3 2 6 7 -1.</_>
        <_>
          5 2 2 7 3.</_></rects>
      <tilted>0</tilted></_>
    <_>
      <rects>
        <_>
          3 3 21 2 -1.</_>
        <_>
          10 3 7 2 3.</_></rects>
      <tilted>0</tilted></_>
    <_>
      <rects>
        <_>
          3 5 1 18 -1.</_>
        <_>
          3 11 1 6 3.</_></rects>
      <tilted>0</tilted></_>
    <_>
      <rects>
        <_>
          3 9 10 3 -1.</_>
        <_>
          3 10 10 1 3.</_></rects>
      <tilted>0</tilted></_>
    <_>
      <rects>
        <_>
          3 10 20 4 -1.</_>
        <_>
          13 10 10 4 2.</_></rects>
      <tilted>0</tilted></_>
    <_>
      <rects>
        <_>
          3 10 17 2 -1.</_>
        <_>
          3 11 17 1 2.</_></rects>
      <tilted>0</tilted></_>
    <_>
      <rects>
        <_>
          3 11 3 6 -1.</_>
        <_>
          4 11 1 6 3.</_></rects>
      <tilted>0</tilted></_>
    <_>
      <rects>
        <_>
          3 12 1 12 -1.</_>
        <_>
          3 18 1 6 2.</_></rects>
      <tilted>0</tilted></_>
    <_>
      <rects>
        <_>
          3 12 12 10 -1.</_>
        <_>
          3 17 12 5 2.</_></rects>
      <tilted>0</tilted></_>
    <_>
      <rects>
        <_>
          3 18 8 4 -1.</_>
        <_>
          3 18 4 2 2.</_>
        <_>
          7 20 4 2 2.</_></rects>
      <tilted>0</tilted></_>
    <_>
      <rects>
        <_>
          3 22 3 1 -1.</_>
        <_>
          4 22 1 1 3.</_></rects>
      <tilted>0</tilted></_>
    <_>
      <rects>
        <_>
          3 22 9 2 -1.</_>
        <_>
          3 23 9 1 2.</_></rects>
      <tilted>0</tilted></_>
    <_>
      <rects>
        <_>
          3 23 6 1 -1.</_>
        <_>
          5 23 2 1 3.</_></rects>
      <tilted>0</tilted></_>
    <_>
      <rects>
        <_>
          4 0 15 1 -1.</_>
        <_>
          9 0 5 1 3.</_></rects>
      <tilted>0</tilted></_>
    <_>
      <rects>
        <_>
          4 0 12 1 -1.</_>
        <_>
          10 0 6 1 2.</_></rects>
      <tilted>0</tilted></_>
    <_>
      <rects>
        <_>
          4 0 16 7 -1.</_>
        <_>
          12 0 8 7 2.</_></rects>
      <tilted>0</tilted></_>
    <_>
      <rects>
        <_>
          4 2 1 2 -1.</_>
        <_>
          4 3 1 1 2.</_></rects>
      <tilted>0</tilted></_>
    <_>
      <rects>
        <_>
          4 3 9 9 -1.</_>
        <_>
          7 3 3 9 3.</_></rects>
      <tilted>0</tilted></_>
    <_>
      <rects>
        <_>
          4 3 14 18 -1.</_>
        <_>
          4 3 7 9 2.</_>
        <_>
          11 12 7 9 2.</_></rects>
      <tilted>0</tilted></_>
    <_>
      <rects>
        <_>
          4 4 15 3 -1.</_>
        <_>
          4 5 15 1 3.</_></rects>
      <tilted>0</tilted></_>
    <_>
      <rects>
        <_>
          4 7 16 12 -1.</_>
        <_>
          4 7 8 6 2.</_>
        <_>
          12 13 8 6 2.</_></rects>
      <tilted>0</tilted></_>
    <_>
      <rects>
        <_>
          4 9 2 4 -1.</_>
        <_>
          4 11 2 2 2.</_></rects>
      <tilted>0</tilted></_>
    <_>
      <rects>
        <_>
          4 13 1 2 -1.</_>
        <_>
          4 14 1 1 2.</_></rects>
      <tilted>0</tilted></_>
    <_>
      <rects>
        <_>
          4 14 2 6 -1.</_>
        <_>
          4 17 2 3 2.</_></rects>
      <tilted>0</tilted></_>
    <_>
      <rects>
        <_>
          4 16 12 3 -1.</_>
        <_>
          4 17 12 1 3.</_></rects>
      <tilted>0</tilted></_>
    <_>
      <rects>
        <_>
          4 18 8 4 -1.</_>
        <_>
          4 18 4 2 2.</_>
        <_>
          8 20 4 2 2.</_></rects>
      <tilted>0</tilted></_>
    <_>
      <rects>
        <_>
          4 19 13 4 -1.</_>
        <_>
          4 21 13 2 2.</_></rects>
      <tilted>0</tilted></_>
    <_>
      <rects>
        <_>
          4 22 2 2 -1.</_>
        <_>
          5 22 1 2 2.</_></rects>
      <tilted>0</tilted></_>
    <_>
      <rects>
        <_>
          4 22 3 2 -1.</_>
        <_>
          5 22 1 2 3.</_></rects>
      <tilted>0</tilted></_>
    <_>
      <rects>
        <_>
          5 0 18 9 -1.</_>
        <_>
          11 0 6 9 3.</_></rects>
      <tilted>0</tilted></_>
    <_>
      <rects>
        <_>
          5 4 9 12 -1.</_>
        <_>
          5 8 9 4 3.</_></rects>
      <tilted>0</tilted></_>
    <_>
      <rects>
        <_>
          5 14 2 6 -1.</_>
        <_>
          5 14 1 3 2.</_>
        <_>
          6 17 1 3 2.</_></rects>
      <tilted>0</tilted></_>
    <_>
      <rects>
        <_>
          5 14 6 10 -1.</_>
        <_>
          5 19 6 5 2.</_></rects>
      <tilted>0</tilted></_>
    <_>
      <rects>
        <_>
          5 15 3 8 -1.</_>
        <_>
          5 19 3 4 2.</_></rects>
      <tilted>0</tilted></_>
    <_>
      <rects>
        <_>
          5 16 7 8 -1.</_>
        <_>
          5 20 7 4 2.</_></rects>
      <tilted>0</tilted></_>
    <_>
      <rects>
        <_>
          5 18 12 4 -1.</_>
        <_>
          5 20 12 2 2.</_></rects>
      <tilted>0</tilted></_>
    <_>
      <rects>
        <_>
          5 23 6 1 -1.</_>
        <_>
          7 23 2 1 3.</_></rects>
      <tilted>0</tilted></_>
    <_>
      <rects>
        <_>
          6 3 18 15 -1.</_>
        <_>
          12 3 6 15 3.</_></rects>
      <tilted>0</tilted></_>
    <_>
      <rects>
        <_>
          6 4 12 3 -1.</_>
        <_>
          6 5 12 1 3.</_></rects>
      <tilted>0</tilted></_>
    <_>
      <rects>
        <_>
          6 7 14 6 -1.</_>
        <_>
          6 9 14 2 3.</_></rects>
      <tilted>0</tilted></_>
    <_>
      <rects>
        <_>
          6 10 5 4 -1.</_>
        <_>
          6 12 5 2 2.</_></rects>
      <tilted>0</tilted></_>
    <_>
      <rects>
        <_>
          6 15 1 2 -1.</_>
        <_>
          6 16 1 1 2.</_></rects>
      <tilted>0</tilted></_>
    <_>
      <rects>
        <_>
          6 17 6 3 -1.</_>
        <_>
          8 17 2 3 3.</_></rects>
      <tilted>0</tilted></_>
    <_>
      <rects>
        <_>
          6 23 9 1 -1.</_>
        <_>
          9 23 3 1 3.</_></rects>
      <tilted>0</tilted></_>
    <_>
      <rects>
        <_>
          7 0 16 6 -1.</_>
        <_>
          7 2 16 2 3.</_></rects>
      <tilted>0</tilted></_>
    <_>
      <rects>
        <_>
          7 4 3 12 -1.</_>
        <_>
          7 8 3 4 3.</_></rects>
      <tilted>0</tilted></_>
    <_>
      <rects>
        <_>
          7 5 5 2 -1.</_>
        <_>
          7 6 5 1 2.</_></rects>
      <tilted>0</tilted></_>
    <_>
      <rects>
        <_>
          7 5 5 6 -1.</_>
        <_>
          7 7 5 2 3.</_></rects>
      <tilted>0</tilted></_>
    <_>
      <rects>
        <_>
          7 7 6 6 -1.</_>
        <_>
          7 9 6 2 3.</_></rects>
      <tilted>0</tilted></_>
    <_>
      <rects>
        <_>
          7 18 5 6 -1.</_>
        <_>
          7 20 5 2 3.</_></rects>
      <tilted>0</tilted></_>
    <_>
      <rects>
        <_>
          8 3 6 18 -1.</_>
        <_>
          8 3 3 9 2.</_>
        <_>
          11 12 3 9 2.</_></rects>
      <tilted>0</tilted></_>
    <_>
      <rects>
        <_>
          8 4 2 6 -1.</_>
        <_>
          9 4 1 6 2.</_></rects>
      <tilted>0</tilted></_>
    <_>
      <rects>
        <_>
          8 8 6 6 -1.</_>
        <_>
          8 10 6 2 3.</_></rects>
      <tilted>0</tilted></_>
    <_>
      <rects>
        <_>
          8 17 9 5 -1.</_>
        <_>
          11 17 3 5 3.</_></rects>
      <tilted>0</tilted></_>
    <_>
      <rects>
        <_>
          8 22 3 2 -1.</_>
        <_>
          9 22 1 2 3.</_></rects>
      <tilted>0</tilted></_>
    <_>
      <rects>
        <_>
          9 2 1 6 -1.</_>
        <_>
          9 5 1 3 2.</_></rects>
      <tilted>0</tilted></_>
    <_>
      <rects>
        <_>
          9 3 4 18 -1.</_>
        <_>
          9 3 2 9 2.</_>
        <_>
          11 12 2 9 2.</_></rects>
      <tilted>0</tilted></_>
    <_>
      <rects>
        <_>
          9 11 11 3 -1.</_>
        <_>
          9 12 11 1 3.</_></rects>
      <tilted>0</tilted></_>
    <_>
      <rects>
        <_>
          9 15 10 6 -1.</_>
        <_>
          9 18 10 3 2.</_></rects>
      <tilted>0</tilted></_>
    <_>
      <rects>
        <_>
          9 21 3 3 -1.</_>
        <_>
          10 21 1 3 3.</_></rects>
      <tilted>0</tilted></_>
    <_>
      <rects>
        <_>
          10 0 1 12 -1.</_>
        <_>
          10 6 1 6 2.</_></rects>
      <tilted>0</tilted></_>
    <_>
      <rects>
        <_>
          10 1 4 9 -1.</_>
        <_>
          10 4 4 3 3.</_></rects>
      <tilted>0</tilted></_>
    <_>
      <rects>
        <_>
          10 2 3 16 -1.</_>
        <_>
          11 2 1 16 3.</_></rects>
      <tilted>0</tilted></_>
    <_>
      <rects>
        <_>
          10 3 12 4 -1.</_>
        <_>
          14 3 4 4 3.</_></rects>
      <tilted>0</tilted></_>
    <_>
      <rects>
        <_>
          10 3 11 4 -1.</_>
        <_>
          10 5 11 2 2.</_></rects>
      <tilted>0</tilted></_>
    <_>
      <rects>
        <_>
          10 10 3 2 -1.</_>
        <_>
          10 11 3 1 2.</_></rects>
      <tilted>0</tilted></_>
    <_>
      <rects>
        <_>
          10 10 4 2 -1.</_>
        <_>
          10 11 4 1 2.</_></rects>
      <tilted>0</tilted></_>
    <_>
      <rects>
        <_>
          10 11 9 2 -1.</_>
        <_>
          10 12 9 1 2.</_></rects>
      <tilted>0</tilted></_>
    <_>
      <rects>
        <_>
          10 12 14 10 -1.</_>
        <_>
          10 12 7 5 2.</_>
        <_>
          17 17 7 5 2.</_></rects>
      <tilted>0</tilted></_>
    <_>
      <rects>
        <_>
          10 13 7 6 -1.</_>
        <_>
          10 16 7 3 2.</_></rects>
      <tilted>0</tilted></_>
    <_>
      <rects>
        <_>
          10 16 8 1 -1.</_>
        <_>
          14 16 4 1 2.</_></rects>
      <tilted>0</tilted></_>
    <_>
      <rects>
        <_>
          10 17 2 4 -1.</_>
        <_>
          10 17 1 2 2.</_>
        <_>
          11 19 1 2 2.</_></rects>
      <tilted>0</tilted></_>
    <_>
      <rects>
        <_>
          10 20 1 4 -1.</_>
        <_>
          10 22 1 2 2.</_></rects>
      <tilted>0</tilted></_>
    <_>
      <rects>
        <_>
          10 22 2 2 -1.</_>
        <_>
          10 22 1 1 2.</_>
        <_>
          11 23 1 1 2.</_></rects>
      <tilted>0</tilted></_>
    <_>
      <rects>
        <_>
          10 22 3 2 -1.</_>
        <_>
          11 22 1 2 3.</_></rects>
      <tilted>0</tilted></_>
    <_>
      <rects>
        <_>
          10 22 5 2 -1.</_>
        <_>
          10 23 5 1 2.</_></rects>
      <tilted>0</tilted></_>
    <_>
      <rects>
        <_>
          10 23 3 1 -1.</_>
        <_>
          11 23 1 1 3.</_></rects>
      <tilted>0</tilted></_>
    <_>
      <rects>
        <_>
          11 0 6 1 -1.</_>
        <_>
          13 0 2 1 3.</_></rects>
      <tilted>0</tilted></_>
    <_>
      <rects>
        <_>
          11 15 2 2 -1.</_>
        <_>
          11 15 1 1 2.</_>
        <_>
          12 16 1 1 2.</_></rects>
      <tilted>0</tilted></_>
    <_>
      <rects>
        <_>
          11 17 2 3 -1.</_>
        <_>
          12 17 1 3 2.</_></rects>
      <tilted>0</tilted></_>
    <_>
      <rects>
        <_>
          11 20 10 2 -1.</_>
        <_>
          16 20 5 2 2.</_></rects>
      <tilted>0</tilted></_>
    <_>
      <rects>
        <_>
          11 23 3 1 -1.</_>
        <_>
          12 23 1 1 3.</_></rects>
      <tilted>0</tilted></_>
    <_>
      <rects>
        <_>
          12 2 12 10 -1.</_>
        <_>
          18 2 6 10 2.</_></rects>
      <tilted>0</tilted></_>
    <_>
      <rects>
        <_>
          12 22 3 2 -1.</_>
        <_>
          13 22 1 2 3.</_></rects>
      <tilted>0</tilted></_>
    <_>
      <rects>
        <_>
          13 0 6 4 -1.</_>
        <_>
          13 2 6 2 2.</_></rects>
      <tilted>0</tilted></_>
    <_>
      <rects>
        <_>
          13 2 2 3 -1.</_>
        <_>
          13 3 2 1 3.</_></rects>
      <tilted>0</tilted></_>
    <_>
      <rects>
        <_>
          13 2 10 13 -1.</_>
        <_>
          18 2 5 13 2.</_></rects>
      <tilted>0</tilted></_>
    <_>
      <rects>
        <_>
          13 5 2 2 -1.</_>
        <_>
          14 5 1 2 2.</_></rects>
      <tilted>0</tilted></_>
    <_>
      <rects>
        <_>
          13 14 1 6 -1.</_>
        <_>
          13 17 1 3 2.</_></rects>
      <tilted>0</tilted></_>
    <_>
      <rects>
        <_>
          13 23 6 1 -1.</_>
        <_>
          16 23 3 1 2.</_></rects>
      <tilted>0</tilted></_>
    <_>
      <rects>
        <_>
          14 0 6 1 -1.</_>
        <_>
          16 0 2 1 3.</_></rects>
      <tilted>0</tilted></_>
    <_>
      <rects>
        <_>
          14 1 4 8 -1.</_>
        <_>
          14 5 4 4 2.</_></rects>
      <tilted>0</tilted></_>
    <_>
      <rects>
        <_>
          14 4 4 4 -1.</_>
        <_>
          14 4 2 2 2.</_>
        <_>
          16 6 2 2 2.</_></rects>
      <tilted>0</tilted></_>
    <_>
      <rects>
        <_>
          14 5 1 3 -1.</_>
        <_>
          14 6 1 1 3.</_></rects>
      <tilted>0</tilted></_>
    <_>
      <rects>
        <_>
          14 12 6 8 -1.</_>
        <_>
          16 12 2 8 3.</_></rects>
      <tilted>0</tilted></_>
    <_>
      <rects>
        <_>
          14 16 4 1 -1.</_>
        <_>
          16 16 2 1 2.</_></rects>
      <tilted>0</tilted></_>
    <_>
      <rects>
        <_>
          14 16 10 7 -1.</_>
        <_>
          19 16 5 7 2.</_></rects>
      <tilted>0</tilted></_>
    <_>
      <rects>
        <_>
          14 18 2 6 -1.</_>
        <_>
          14 21 2 3 2.</_></rects>
      <tilted>0</tilted></_>
    <_>
      <rects>
        <_>
          14 19 9 4 -1.</_>
        <_>
          17 19 3 4 3.</_></rects>
      <tilted>0</tilted></_>
    <_>
      <rects>
        <_>
          14 23 6 1 -1.</_>
        <_>
          16 23 2 1 3.</_></rects>
      <tilted>0</tilted></_>
    <_>
      <rects>
        <_>
          15 2 6 9 -1.</_>
        <_>
          18 2 3 9 2.</_></rects>
      <tilted>0</tilted></_>
    <_>
      <rects>
        <_>
          15 6 8 8 -1.</_>
        <_>
          15 6 4 4 2.</_>
        <_>
          19 10 4 4 2.</_></rects>
      <tilted>0</tilted></_>
    <_>
      <rects>
        <_>
          15 10 9 14 -1.</_>
        <_>
          18 10 3 14 3.</_></rects>
      <tilted>0</tilted></_>
    <_>
      <rects>
        <_>
          15 12 9 5 -1.</_>
        <_>
          18 12 3 5 3.</_></rects>
      <tilted>0</tilted></_>
    <_>
      <rects>
        <_>
          15 18 6 6 -1.</_>
        <_>
          15 21 6 3 2.</_></rects>
      <tilted>0</tilted></_>
    <_>
      <rects>
        <_>
          15 23 3 1 -1.</_>
        <_>
          16 23 1 1 3.</_></rects>
      <tilted>0</tilted></_>
    <_>
      <rects>
        <_>
          16 0 3 1 -1.</_>
        <_>
          17 0 1 1 3.</_></rects>
      <tilted>0</tilted></_>
    <_>
      <rects>
        <_>
          16 0 6 1 -1.</_>
        <_>
          18 0 2 1 3.</_></rects>
      <tilted>0</tilted></_>
    <_>
      <rects>
        <_>
          16 0 8 1 -1.</_>
        <_>
          20 0 4 1 2.</_></rects>
      <tilted>0</tilted></_>
    <_>
      <rects>
        <_>
          16 1 4 5 -1.</_>
        <_>
          18 1 2 5 2.</_></rects>
      <tilted>0</tilted></_>
    <_>
      <rects>
        <_>
          16 2 6 6 -1.</_>
        <_>
          16 2 3 3 2.</_>
        <_>
          19 5 3 3 2.</_></rects>
      <tilted>0</tilted></_>
    <_>
      <rects>
        <_>
          16 3 5 6 -1.</_>
        <_>
          16 5 5 2 3.</_></rects>
      <tilted>0</tilted></_>
    <_>
      <rects>
        <_>
          16 5 2 4 -1.</_>
        <_>
          16 5 1 2 2.</_>
        <_>
          17 7 1 2 2.</_></rects>
      <tilted>0</tilted></_>
    <_>
      <rects>
        <_>
          16 10 3 12 -1.</_>
        <_>
          16 14 3 4 3.</_></rects>
      <tilted>0</tilted></_>
    <_>
      <rects>
        <_>
          16 12 1 4 -1.</_>
        <_>
          16 14 1 2 2.</_></rects>
      <tilted>0</tilted></_>
    <_>
      <rects>
        <_>
          16 14 8 10 -1.</_>
        <_>
          16 14 4 5 2.</_>
        <_>
          20 19 4 5 2.</_></rects>
      <tilted>0</tilted></_>
    <_>
      <rects>
        <_>
          16 16 8 7 -1.</_>
        <_>
          20 16 4 7 2.</_></rects>
      <tilted>0</tilted></_>
    <_>
      <rects>
        <_>
          16 16 8 8 -1.</_>
        <_>
          20 16 4 8 2.</_></rects>
      <tilted>0</tilted></_>
    <_>
      <rects>
        <_>
          16 20 6 4 -1.</_>
        <_>
          18 20 2 4 3.</_></rects>
      <tilted>0</tilted></_>
    <_>
      <rects>
        <_>
          16 22 3 2 -1.</_>
        <_>
          17 22 1 2 3.</_></rects>
      <tilted>0</tilted></_>
    <_>
      <rects>
        <_>
          16 23 3 1 -1.</_>
        <_>
          17 23 1 1 3.</_></rects>
      <tilted>0</tilted></_>
    <_>
      <rects>
        <_>
          17 0 6 6 -1.</_>
        <_>
          19 0 2 6 3.</_></rects>
      <tilted>0</tilted></_>
    <_>
      <rects>
        <_>
          17 0 6 3 -1.</_>
        <_>
          20 0 3 3 2.</_></rects>
      <tilted>0</tilted></_>
    <_>
      <rects>
        <_>
          17 3 4 1 -1.</_>
        <_>
          19 3 2 1 2.</_></rects>
      <tilted>0</tilted></_>
    <_>
      <rects>
        <_>
          17 9 6 5 -1.</_>
        <_>
          19 9 2 5 3.</_></rects>
      <tilted>0</tilted></_>
    <_>
      <rects>
        <_>
          17 10 6 5 -1.</_>
        <_>
          20 10 3 5 2.</_></rects>
      <tilted>0</tilted></_>
    <_>
      <rects>
        <_>
          17 18 2 1 -1.</_>
        <_>
          18 18 1 1 2.</_></rects>
      <tilted>0</tilted></_>
    <_>
      <rects>
        <_>
          17 22 1 2 -1.</_>
        <_>
          17 23 1 1 2.</_></rects>
      <tilted>0</tilted></_>
    <_>
      <rects>
        <_>
          17 23 6 1 -1.</_>
        <_>
          19 23 2 1 3.</_></rects>
      <tilted>0</tilted></_>
    <_>
      <rects>
        <_>
          18 3 3 21 -1.</_>
        <_>
          18 10 3 7 3.</_></rects>
      <tilted>0</tilted></_>
    <_>
      <rects>
        <_>
          18 4 6 3 -1.</_>
        <_>
          18 5 6 1 3.</_></rects>
      <tilted>0</tilted></_>
    <_>
      <rects>
        <_>
          18 10 6 5 -1.</_>
        <_>
          21 10 3 5 2.</_></rects>
      <tilted>0</tilted></_>
    <_>
      <rects>
        <_>
          18 10 5 6 -1.</_>
        <_>
          18 12 5 2 3.</_></rects>
      <tilted>0</tilted></_>
    <_>
      <rects>
        <_>
          18 11 6 6 -1.</_>
        <_>
          18 11 3 3 2.</_>
        <_>
          21 14 3 3 2.</_></rects>
      <tilted>0</tilted></_>
    <_>
      <rects>
        <_>
          18 13 6 9 -1.</_>
        <_>
          21 13 3 9 2.</_></rects>
      <tilted>0</tilted></_>
    <_>
      <rects>
        <_>
          18 14 2 2 -1.</_>
        <_>
          18 14 1 1 2.</_>
        <_>
          19 15 1 1 2.</_></rects>
      <tilted>0</tilted></_>
    <_>
      <rects>
        <_>
          18 17 6 4 -1.</_>
        <_>
          20 17 2 4 3.</_></rects>
      <tilted>0</tilted></_>
    <_>
      <rects>
        <_>
          18 17 6 4 -1.</_>
        <_>
          21 17 3 4 2.</_></rects>
      <tilted>0</tilted></_>
    <_>
      <rects>
        <_>
          19 3 2 6 -1.</_>
        <_>
          19 3 1 3 2.</_>
        <_>
          20 6 1 3 2.</_></rects>
      <tilted>0</tilted></_>
    <_>
      <rects>
        <_>
          19 6 4 9 -1.</_>
        <_>
          21 6 2 9 2.</_></rects>
      <tilted>0</tilted></_>
    <_>
      <rects>
        <_>
          19 13 2 2 -1.</_>
        <_>
          19 14 2 1 2.</_></rects>
      <tilted>0</tilted></_>
    <_>
      <rects>
        <_>
          19 16 3 2 -1.</_>
        <_>
          19 17 3 1 2.</_></rects>
      <tilted>0</tilted></_>
    <_>
      <rects>
        <_>
          20 0 3 1 -1.</_>
        <_>
          21 0 1 1 3.</_></rects>
      <tilted>0</tilted></_>
    <_>
      <rects>
        <_>
          20 0 4 2 -1.</_>
        <_>
          22 0 2 2 2.</_></rects>
      <tilted>0</tilted></_>
    <_>
      <rects>
        <_>
          20 10 4 14 -1.</_>
        <_>
          20 10 2 7 2.</_>
        <_>
          22 17 2 7 2.</_></rects>
      <tilted>0</tilted></_>
    <_>
      <rects>
        <_>
          20 13 3 4 -1.</_>
        <_>
          21 13 1 4 3.</_></rects>
      <tilted>0</tilted></_>
    <_>
      <rects>
        <_>
          20 16 4 4 -1.</_>
        <_>
          22 16 2 4 2.</_></rects>
      <tilted>0</tilted></_>
    <_>
      <rects>
        <_>
          21 1 3 2 -1.</_>
        <_>
          22 1 1 2 3.</_></rects>
      <tilted>0</tilted></_>
    <_>
      <rects>
        <_>
          21 11 3 3 -1.</_>
        <_>
          22 11 1 3 3.</_></rects>
      <tilted>0</tilted></_>
    <_>
      <rects>
        <_>
          21 16 2 2 -1.</_>
        <_>
          22 16 1 2 2.</_></rects>
      <tilted>0</tilted></_>
    <_>
      <rects>
        <_>
          21 21 3 3 -1.</_>
        <_>
          22 21 1 3 3.</_></rects>
      <tilted>0</tilted></_>
    <_>
      <rects>
        <_>
          21 22 3 2 -1.</_>
        <_>
          22 22 1 2 3.</_></rects>
      <tilted>0</tilted></_>
    <_>
      <rects>
        <_>
          22 1 2 6 -1.</_>
        <_>
          23 1 1 6 2.</_></rects>
      <tilted>0</tilted></_>
    <_>
      <rects>
        <_>
          22 12 2 8 -1.</_>
        <_>
          22 16 2 4 2.</_></rects>
      <tilted>0</tilted></_>
    <_>
      <rects>
        <_>
          22 20 2 4 -1.</_>
        <_>
          22 20 1 2 2.</_>
        <_>
          23 22 1 2 2.</_></rects>
      <tilted>0</tilted></_>
    <_>
      <rects>
        <_>
          23 3 1 21 -1.</_>
        <_>
          23 10 1 7 3.</_></rects>
      <tilted>0</tilted></_>
    <_>
      <rects>
        <_>
          23 8 1 3 -1.</_>
        <_>
          23 9 1 1 3.</_></rects>
      <tilted>0</tilted></_>
    <_>
      <rects>
        <_>
          23 10 1 12 -1.</_>
        <_>
          23 16 1 6 2.</_></rects>
      <tilted>0</tilted></_>
    <_>
      <rects>
        <_>
          23 15 1 9 -1.</_>
        <_>
          23 18 1 3 3.</_></rects>
      <tilted>0</tilted></_>
    <_>
      <rects>
        <_>
          23 16 1 3 -1.</_>
        <_>
          23 17 1 1 3.</_></rects>
      <tilted>0</tilted></_>
    <_>
      <rects>
        <_>
          23 16 1 6 -1.</_>
        <_>
          23 18 1 2 3.</_></rects>
      <tilted>0</tilted></_>
    <_>
      <rects>
        <_>
          23 16 1 8 -1.</_>
        <_>
          23 20 1 4 2.</_></rects>
      <tilted>0</tilted></_></features></cascade>
</opencv_storage>
